{"learner":{"attributes":{"scikit_learn":"{\"_estimator_type\": \"regressor\"}"},"feature_names":["Month","LSOA code encoded"],"feature_types":["int","int"],"gradient_booster":{"model":{"gbtree_model_param":{"num_parallel_tree":"1","num_trees":"164"},"iteration_indptr":[0,1,2,3,4,5,6,7,8,9,10,11,12,13,14,15,16,17,18,19,20,21,22,23,24,25,26,27,28,29,30,31,32,33,34,35,36,37,38,39,40,41,42,43,44,45,46,47,48,49,50,51,52,53,54,55,56,57,58,59,60,61,62,63,64,65,66,67,68,69,70,71,72,73,74,75,76,77,78,79,80,81,82,83,84,85,86,87,88,89,90,91,92,93,94,95,96,97,98,99,100,101,102,103,104,105,106,107,108,109,110,111,112,113,114,115,116,117,118,119,120,121,122,123,124,125,126,127,128,129,130,131,132,133,134,135,136,137,138,139,140,141,142,143,144,145,146,147,148,149,150,151,152,153,154,155,156,157,158,159,160,161,162,163,164],"tree_info":[0,0,0,0,0,0,0,0,0,0,0,0,0,0,0,0,0,0,0,0,0,0,0,0,0,0,0,0,0,0,0,0,0,0,0,0,0,0,0,0,0,0,0,0,0,0,0,0,0,0,0,0,0,0,0,0,0,0,0,0,0,0,0,0,0,0,0,0,0,0,0,0,0,0,0,0,0,0,0,0,0,0,0,0,0,0,0,0,0,0,0,0,0,0,0,0,0,0,0,0,0,0,0,0,0,0,0,0,0,0,0,0,0,0,0,0,0,0,0,0,0,0,0,0,0,0,0,0,0,0,0,0,0,0,0,0,0,0,0,0,0,0,0,0,0,0,0,0,0,0,0,0,0,0,0,0,0,0,0,0,0,0,0,0],"trees":[{"base_weights":[1.3431668E-4,1.5380193E-2,-1.4949534E-2,-5.166769E-2,8.055071E-2,3.5345208E-2,-8.068222E-2,3.4870668E-3,1.0107559E-1,1.5441861E-3,4.957459E-3,-8.6588405E-2,-6.886254E-2,1.02320565E-2,8.425675E-3,-8.057159E-2,-9.26013E-2,-4.9307407E-3,-7.7360733E-3,-8.372597E-3,-6.447746E-3,-9.289927E-3,-7.743002E-3],"categories":[],"categories_nodes":[],"categories_segments":[],"categories_sizes":[],"default_left":[0,0,0,0,0,0,0,0,0,0,0,0,0,0,0,0,0,0,0,0,0,0,0],"id":0,"left_children":[1,-1,3,5,7,9,11,-1,13,-1,-1,15,17,-1,-1,19,21,-1,-1,-1,-1,-1,-1],"loss_changes":[1.8800886E3,0E0,2.398993E3,1.2475775E3,1.6619421E2,4.2519913E1,2.5801025E1,0E0,1.22595215E1,0E0,0E0,8.861206E0,2.8667175E1,0E0,0E0,1.3456787E1,8.654419E0,0E0,0E0,0E0,0E0,0E0,0E0],"parents":[2147483647,0,0,2,2,3,3,4,4,5,5,6,6,8,8,11,11,12,12,15,15,16,16],"right_children":[2,-1,4,6,8,10,12,-1,14,-1,-1,16,18,-1,-1,20,22,-1,-1,-1,-1,-1,-1],"split_conditions":[2E0,1.5380193E-2,1E1,4E0,1.1E1,3E0,8E0,3.4870668E-3,1.2E1,1.5441861E-3,4.957459E-3,6E0,9E0,1.02320565E-2,8.425675E-3,5E0,7E0,-4.9307407E-3,-7.7360733E-3,-8.372597E-3,-6.447746E-3,-9.289927E-3,-7.743002E-3],"split_indices":[0,0,0,0,0,0,0,0,0,0,0,0,0,0,0,0,0,0,0,0,0,0,0],"split_type":[0,0,0,0,0,0,0,0,0,0,0,0,0,0,0,0,0,0,0,0,0,0,0],"sum_hessian":[7.45899E5,6.1759E4,6.8414E5,4.94152E5,1.89988E5,1.23567E5,3.70585E5,6.1747E4,1.28241E5,6.1801E4,6.1766E4,2.47081E5,1.23504E5,6.1751E4,6.649E4,1.2354E5,1.23541E5,6.1775E4,6.1729E4,6.1743E4,6.1797E4,6.1742E4,6.1799E4],"tree_param":{"num_deleted":"0","num_feature":"2","num_nodes":"23","size_leaf_vector":"1"}},{"base_weights":[2.03547E-4,-3.3150315E-2,4.9773762E-1,-1.1282603E-1,-1.5239338E-2,8.7411106E-1,2.7195936E-1,5.1368266E-2,-2.1643944E-1,6.8251765E-1,-2.9689703E-2,6.1097634E-1,1.4021641E0,1.1947552E-2,8.6353135E-1,-2.3875591E-1,1.14022955E-1,-4.9286667E-1,-9.9930294E-2,1.137543E-1,4.9364728E-1,-4.2202074E-2,6.2327575E-2,8.059685E-2,5.2221256E-1,1.0100161E-1,1.5681103E-1,-3.946827E-2,2.9164467E-2,1.3695166E0,-9.423454E-3,-3.5656143E-2,-1.6398905E-1,6.499295E-2,1.6263644E-1,-5.777116E-1,-4.4279364E-1,7.404886E-2,-2.0110649E-1,1.2986666E-1,1.1041326E-1,-2.8452758E-2,-4.1300046E-1,3.2865897E-1,-3.128983E-2,1.9457545E-2,6.770794E-1,1.4674006E-1,-1.3013166E-1,1.1375165E-1,1.3810155E-1,-1.2663069E-2,-1.7470377E-2,1.217365E-1,-8.056228E-2,2.534642E-1,4.1650794E-2,-4.873987E-2,-6.0207397E-1,-4.7144684E-1,-3.0191688E-2,5.495451E-2,1.212157E-1,-1.278241E-1,-3.0283454E-1,1.30133275E-2,1.0800444E-2,-3.9590344E-2,1.8739551E-1,-4.1801608E-1,-3.5651922E-2,4.3675554E-1,2.220925E-1,1.6765254E-2,-8.530314E-2,6.5653265E-2,5.886876E-2,1.1288572E-2,1.5562245E-2,-3.4159668E-2,-4.9466237E-2,4.275488E-2,4.0352937E-2,-1.7330701E-3,-1.3418592E-2,3.3900145E-2,2.1507773E-1,-5.4607905E-2,2.1665053E-2,-5.7781197E-2,-5.306505E-2,-4.2390364E-1,-5.6479737E-2,8.860994E-2,-7.1657524E-3,1.9549223E-2,2.6910126E-3,-2.1694452E-1,1.0132548E-1,-4.960204E-2,-2.4351615E-1,-1.9126827E-2,-1.2477543E-1,6.057261E-2,1.19267575E-1,-4.0522227E-1,-4.3132275E-2,3.427351E-1,5.701859E-2,8.917402E-2,4.4853996E-2,-7.1247675E-2,8.784571E-2,-6.972041E-2,-1.7816726E-2,-1.1077902E-1,6.7033935E-3,6.1571677E-3,-2.763908E-3,1.0172334E-2,2.4564056E-2,-7.7527463E-3,-2.28954E-3,-4.4408042E-2,-3.6258798E-2,3.7589166E-3,1.2642069E-2,-9.218971E-3,-2.2624006E-2,1.3154996E-2,5.6705875E-3,-9.526804E-3,-3.5260465E-2,-3.9986246E-3,4.2502666E-3,-2.5910605E-2,-7.842188E-3,7.365109E-3,3.2329284E-2,-3.839626E-2,-3.3875618E-2,3.0336672E-2,3.2748073E-2,4.3433136E-3,1.2052057E-2,7.1732793E-3,-1.1113735E-2,1.7239925E-2,2.1181756E-3,-7.900728E-3,2.4219374E-3,-1.1613039E-2,-8.743081E-3],"categories":[],"categories_nodes":[],"categories_segments":[],"categories_sizes":[],"default_left":[0,0,0,0,0,0,0,0,0,0,0,0,0,0,0,0,0,0,0,0,0,0,0,0,0,0,0,0,0,0,0,0,0,0,0,0,0,0,0,0,0,0,0,0,0,0,0,0,0,0,0,0,0,0,0,0,0,0,0,0,0,0,0,0,0,0,0,0,0,0,0,0,0,0,0,0,0,0,0,0,0,0,0,0,0,0,0,0,0,0,0,0,0,0,0,0,0,0,0,0,0,0,0,0,0,0,0,0,0,0,0,0,0,0,0,0,0,0,0,0,0,0,0,0,0,0,0,0,0,0,0,0,0,0,0,0,0,0,0,0,0,0,0,0,0,0,0,0,0,0,0,0,0],"id":1,"left_children":[1,3,5,7,9,11,13,15,17,19,21,23,25,27,29,31,33,35,37,-1,39,41,43,-1,45,-1,-1,47,-1,49,-1,-1,51,53,55,57,59,61,63,65,-1,67,69,71,73,-1,75,77,79,-1,-1,-1,-1,81,83,85,87,-1,89,91,-1,93,95,97,99,-1,-1,101,103,105,-1,107,109,111,113,-1,-1,-1,-1,-1,115,117,-1,-1,-1,-1,119,121,-1,-1,-1,123,-1,125,-1,-1,-1,127,129,-1,131,133,135,-1,137,139,-1,141,-1,143,-1,145,147,149,-1,151,-1,-1,-1,-1,-1,-1,-1,-1,-1,-1,-1,-1,-1,-1,-1,-1,-1,-1,-1,-1,-1,-1,-1,-1,-1,-1,-1,-1,-1,-1,-1,-1,-1,-1,-1,-1,-1],"loss_changes":[1.2378307E4,9.975306E2,3.9816943E3,2.18277E3,5.754497E3,2.4400225E3,4.5054473E3,9.022421E2,2.5331194E3,1.2112827E3,6.4379456E2,2.7538525E2,5.354795E2,3.1943167E2,4.3720923E3,9.788498E1,9.7198975E1,9.8489746E1,9.74182E2,0E0,2.220821E3,2.509355E3,1.668906E3,0E0,4.2248926E2,0E0,0E0,2.940212E2,0E0,1.0050781E2,0E0,0E0,3.8556213E0,1.6793274E2,2.250705E2,9.3811035E0,4.77063E1,1.8247002E1,2.6065942E2,7.0495605E-1,0E0,1.1409946E3,1.793457E0,2.0019788E2,1.285689E2,0E0,7.1140137E0,2.9382095E0,2.2782529E2,0E0,0E0,0E0,0E0,3.66104E2,2.2917976E1,5.143048E1,1.6417319E2,0E0,3.0146484E0,7.896948E1,0E0,6.4812294E1,4.908934E1,4.1551892E2,2.0510107E2,0E0,0E0,7.867332E2,7.472354E2,9.074951E0,0E0,1.4828687E2,3.0934177E2,1.6393477E2,3.9279068E1,0E0,0E0,0E0,0E0,0E0,6.5899704E1,2.0649857E1,0E0,0E0,0E0,0E0,4.7539856E1,5.1341934E0,0E0,0E0,0E0,1.48984375E1,0E0,2.6892586E1,0E0,0E0,0E0,4.950287E1,9.332188E0,0E0,2.2906067E2,5.7906335E2,5.4189514E2,0E0,1.8498355E2,4.8809814E0,0E0,6.166382E-1,0E0,1.0189941E1,0E0,8.665796E1,9.351185E1,3.1733078E1,0E0,1.3237686E0,0E0,0E0,0E0,0E0,0E0,0E0,0E0,0E0,0E0,0E0,0E0,0E0,0E0,0E0,0E0,0E0,0E0,0E0,0E0,0E0,0E0,0E0,0E0,0E0,0E0,0E0,0E0,0E0,0E0,0E0,0E0,0E0,0E0,0E0,0E0,0E0,0E0],"parents":[2147483647,0,0,1,1,2,2,3,3,4,4,5,5,6,6,7,7,8,8,9,9,10,10,11,11,12,12,13,13,14,14,15,15,16,16,17,17,18,18,20,20,21,21,22,22,24,24,27,27,29,29,32,32,33,33,34,34,35,35,36,36,37,37,38,38,39,39,41,41,42,42,43,43,44,44,46,46,47,47,48,48,53,53,54,54,55,55,56,56,58,58,59,59,61,61,62,62,63,63,64,64,67,67,68,68,69,69,71,71,72,72,73,73,74,74,80,80,81,81,86,86,87,87,91,91,93,93,97,97,98,98,100,100,101,101,102,102,104,104,105,105,107,107,109,109,111,111,112,112,113,113,115,115],"right_children":[2,4,6,8,10,12,14,16,18,20,22,24,26,28,30,32,34,36,38,-1,40,42,44,-1,46,-1,-1,48,-1,50,-1,-1,52,54,56,58,60,62,64,66,-1,68,70,72,74,-1,76,78,80,-1,-1,-1,-1,82,84,86,88,-1,90,92,-1,94,96,98,100,-1,-1,102,104,106,-1,108,110,112,114,-1,-1,-1,-1,-1,116,118,-1,-1,-1,-1,120,122,-1,-1,-1,124,-1,126,-1,-1,-1,128,130,-1,132,134,136,-1,138,140,-1,142,-1,144,-1,146,148,150,-1,152,-1,-1,-1,-1,-1,-1,-1,-1,-1,-1,-1,-1,-1,-1,-1,-1,-1,-1,-1,-1,-1,-1,-1,-1,-1,-1,-1,-1,-1,-1,-1,-1,-1,-1,-1,-1,-1],"split_conditions":[4.531E3,8.31E2,4.645E3,3.21E2,9.06E2,4.607E3,4.777E3,5.6E1,4.72E2,8.5E2,4.097E3,4.55E3,4.626E3,4.758E3,4.815E3,1.8E1,1.88E2,3.77E2,6.04E2,1.137543E-1,8.87E2,3.983E3,4.21E3,8.059685E-2,4.569E3,1.0100161E-1,1.5681103E-1,4.682E3,2.9164467E-2,4.796E3,-9.423454E-3,-3.5656143E-2,3.7E1,1.51E2,2.64E2,3.4E2,4.53E2,5.66E2,7.36E2,8.69E2,1.1041326E-1,3.832E3,4.078E3,4.153E3,4.38E3,1.9457545E-2,4.588E3,4.663E3,4.701E3,1.1375165E-1,1.3810155E-1,-1.2663069E-2,-1.7470377E-2,1.32E2,1.7E2,2.07E2,3.02E2,-4.873987E-2,3.58E2,4.34E2,-3.0191688E-2,5.47E2,5.85E2,6.99E2,7.55E2,1.30133275E-2,1.0800444E-2,3.265E3,3.851E3,4.059E3,-3.5651922E-2,4.134E3,4.191E3,4.286E3,4.512E3,6.5653265E-2,5.886876E-2,1.1288572E-2,1.5562245E-2,-3.4159668E-2,4.739E3,1.13E2,4.0352937E-2,-1.7330701E-3,-1.3418592E-2,3.3900145E-2,2.26E2,2.83E2,2.1665053E-2,-5.7781197E-2,-5.306505E-2,3.96E2,-5.6479737E-2,5.1E2,-7.1657524E-3,1.9549223E-2,2.6910126E-3,6.23E2,7.17E2,-4.960204E-2,7.93E2,2.625E3,3.379E3,6.057261E-2,3.964E3,4.04E3,-4.3132275E-2,4.116E3,5.701859E-2,4.172E3,4.4853996E-2,4.229E3,4.323E3,4.493E3,-1.7816726E-2,4.72E3,6.7033935E-3,6.1571677E-3,-2.763908E-3,1.0172334E-2,2.4564056E-2,-7.7527463E-3,-2.28954E-3,-4.4408042E-2,-3.6258798E-2,3.7589166E-3,1.2642069E-2,-9.218971E-3,-2.2624006E-2,1.3154996E-2,5.6705875E-3,-9.526804E-3,-3.5260465E-2,-3.9986246E-3,4.2502666E-3,-2.5910605E-2,-7.842188E-3,7.365109E-3,3.2329284E-2,-3.839626E-2,-3.3875618E-2,3.0336672E-2,3.2748073E-2,4.3433136E-3,1.2052057E-2,7.1732793E-3,-1.1113735E-2,1.7239925E-2,2.1181756E-3,-7.900728E-3,2.4219374E-3,-1.1613039E-2,-8.743081E-3],"split_indices":[1,1,1,1,1,1,1,1,1,1,1,1,1,1,1,1,1,1,1,0,1,1,1,0,1,0,0,1,0,1,0,0,1,1,1,1,1,1,1,1,0,1,1,1,1,0,1,1,1,0,0,0,0,1,1,1,1,0,1,1,0,1,1,1,1,0,0,1,1,1,0,1,1,1,1,0,0,0,0,0,1,1,0,0,0,0,1,1,0,0,0,1,0,1,0,0,0,1,1,0,1,1,1,0,1,1,0,1,0,1,0,1,1,1,0,1,0,0,0,0,0,0,0,0,0,0,0,0,0,0,0,0,0,0,0,0,0,0,0,0,0,0,0,0,0,0,0,0,0,0,0,0,0],"split_type":[0,0,0,0,0,0,0,0,0,0,0,0,0,0,0,0,0,0,0,0,0,0,0,0,0,0,0,0,0,0,0,0,0,0,0,0,0,0,0,0,0,0,0,0,0,0,0,0,0,0,0,0,0,0,0,0,0,0,0,0,0,0,0,0,0,0,0,0,0,0,0,0,0,0,0,0,0,0,0,0,0,0,0,0,0,0,0,0,0,0,0,0,0,0,0,0,0,0,0,0,0,0,0,0,0,0,0,0,0,0,0,0,0,0,0,0,0,0,0,0,0,0,0,0,0,0,0,0,0,0,0,0,0,0,0,0,0,0,0,0,0,0,0,0,0,0,0,0,0,0,0,0,0],"sum_hessian":[7.45907E5,6.99044E5,4.6863E4,1.28297E5,5.70747E5,1.757E4,2.9293E4,4.9636E4,7.8661E4,1.1579E4,5.59168E5,1.1728E4,5.842E3,2.035E4,8.943E3,8.814E3,4.0822E4,2.3322E4,5.5339E4,2.941E3,8.638E3,4.92239E5,6.6929E4,2.937E3,8.791E3,2.918E3,2.924E3,1.7415E4,2.935E3,5.869E3,3.074E3,2.943E3,5.871E3,2.0329E4,2.0493E4,8.65E3,1.4672E4,2.0347E4,3.4992E4,5.704E3,2.934E3,4.74641E5,1.7598E4,1.7408E4,4.9521E4,2.926E3,5.865E3,5.701E3,1.1714E4,2.933E3,2.936E3,2.927E3,2.944E3,1.4629E4,5.7E3,1.1703E4,8.79E3,2.933E3,5.717E3,1.1731E4,2.941E3,1.4491E4,5.856E3,2.0343E4,1.4649E4,2.926E3,2.778E3,4.51354E5,2.3287E4,1.4669E4,2.929E3,8.639E3,8.769E3,2.6202E4,2.3319E4,2.929E3,2.936E3,2.768E3,2.933E3,2.933E3,8.781E3,1.1713E4,2.916E3,2.935E3,2.765E3,2.922E3,8.781E3,5.873E3,2.917E3,2.781E3,2.936E3,8.803E3,2.928E3,1.1565E4,2.926E3,2.935E3,2.921E3,1.4648E4,5.695E3,2.935E3,1.1714E4,3.63934E5,8.742E4,2.94E3,2.0347E4,1.1737E4,2.932E3,5.712E3,2.927E3,5.846E3,2.923E3,1.1704E4,1.4498E4,2.0393E4,2.926E3,5.852E3,2.929E3,8.796E3,2.917E3,2.922E3,5.859E3,2.93E3,2.943E3,2.938E3,5.865E3,5.854E3,5.711E3,2.923E3,1.1725E4,2.77E3,2.925E3,5.858E3,5.856E3,2.65132E5,9.8802E4,1.7576E4,6.9844E4,1.7412E4,2.935E3,8.794E3,2.943E3,2.931E3,2.781E3,2.926E3,2.92E3,2.917E3,8.787E3,5.712E3,8.786E3,1.7456E4,2.937E3,2.931E3,2.921E3],"tree_param":{"num_deleted":"0","num_feature":"2","num_nodes":"153","size_leaf_vector":"1"}},{"base_weights":[-1.3659259E-4,-3.0006142E-2,4.448783E-1,-1.006921E-1,-1.4114817E-2,7.849101E-1,2.408437E-1,4.8798434E-2,-1.9512667E-1,6.213979E-1,-2.729128E-2,6.3267297E-1,1.4194693E-1,7.981118E-3,7.716863E-1,-2.1202932E-1,1.0486512E-1,-4.4593573E-1,-8.947975E-2,1.0335254E-1,4.5091715E-1,-3.8690414E-2,5.6522667E-2,5.499563E-1,8.864199E-2,-3.9720558E-2,2.6809255E-2,1.231847E0,-9.130884E-3,-3.2484196E-2,-1.4145766E-1,6.0218927E-2,1.491914E-1,-5.1906073E-1,-4.0270978E-1,7.189647E-2,-1.8339065E-1,1.1866401E-1,1.0065788E-1,-2.6220845E-2,-3.751152E-1,2.9913288E-1,-2.9024336E-2,7.3138826E-2,4.676991E-1,1.2708244E-1,-1.2090061E-1,1.0201263E-1,1.2454453E-1,-1.0593386E-2,-1.5406731E-2,1.1156041E-1,-7.1979426E-2,2.3362388E-1,3.6698755E-2,-4.3812092E-2,-5.407945E-1,-4.2831865E-1,-2.7600167E-2,5.502526E-2,1.1361841E-1,-1.1357443E-1,-2.8040433E-1,1.2220799E-2,9.519542E-3,-3.648614E-2,1.7275897E-1,-3.8083008E-1,-3.1847265E-2,3.9586386E-1,2.0385002E-1,1.4694307E-2,-7.833375E-2,1.7407333E-2,6.070177E-1,9.382479E-3,1.3846101E-2,-3.1061744E-2,-4.8946876E-2,3.9231464E-2,3.690511E-2,-1.6640786E-3,-1.183921E-2,3.0194975E-2,2.0206182E-1,-4.938368E-2,1.916852E-2,-5.198057E-2,-4.758578E-2,-3.8434383E-1,-5.1489007E-2,8.588059E-2,-6.0957456E-3,1.826114E-2,2.587279E-3,-1.9380549E-1,9.166631E-2,-4.5488615E-2,-2.2677955E-1,-1.8443638E-2,-1.115573E-1,5.523331E-2,1.1104749E-1,-3.691535E-1,-3.927818E-2,2.8220441E-2,5.231498E-2,8.0503896E-2,4.1532565E-2,-6.67893E-2,8.08402E-2,-6.494682E-2,-1.5715968E-2,5.8481447E-2,5.3154994E-2,-1.055071E-1,5.941897E-3,5.818644E-3,-3.023018E-3,1.0038117E-2,2.285742E-2,-6.812948E-3,-2.2742E-3,-3.9985944E-2,-3.3023875E-2,3.850924E-3,1.2058188E-2,-7.7242567E-3,-2.0351699E-2,1.1994475E-2,5.0301114E-3,-9.426954E-3,-3.2201704E-2,-3.7444278E-3,3.7987987E-3,-2.338724E-2,-6.9584996E-3,7.017379E-3,2.9179873E-2,-3.485107E-2,-3.1234376E-2,4.3647755E-3,1.0432292E-2,6.4641344E-3,-1.034458E-2,1.5517055E-2,2.1634917E-3,-7.3155686E-3,1.9826323E-3,-1.1055616E-2,-8.337744E-3],"categories":[],"categories_nodes":[],"categories_segments":[],"categories_sizes":[],"default_left":[0,0,0,0,0,0,0,0,0,0,0,0,0,0,0,0,0,0,0,0,0,0,0,0,0,0,0,0,0,0,0,0,0,0,0,0,0,0,0,0,0,0,0,0,0,0,0,0,0,0,0,0,0,0,0,0,0,0,0,0,0,0,0,0,0,0,0,0,0,0,0,0,0,0,0,0,0,0,0,0,0,0,0,0,0,0,0,0,0,0,0,0,0,0,0,0,0,0,0,0,0,0,0,0,0,0,0,0,0,0,0,0,0,0,0,0,0,0,0,0,0,0,0,0,0,0,0,0,0,0,0,0,0,0,0,0,0,0,0,0,0,0,0,0,0,0,0,0,0,0,0],"id":2,"left_children":[1,3,5,7,9,11,13,15,17,19,21,23,-1,25,27,29,31,33,35,-1,37,39,41,43,-1,45,-1,47,-1,-1,49,51,53,55,57,59,61,63,-1,65,67,69,71,-1,73,75,77,-1,-1,-1,-1,79,81,83,85,-1,87,89,-1,91,93,95,97,-1,-1,99,101,103,-1,105,107,109,111,-1,113,-1,-1,-1,115,117,-1,-1,-1,-1,119,121,-1,-1,-1,123,-1,125,-1,-1,-1,127,129,-1,131,133,135,-1,137,139,-1,-1,-1,141,-1,143,145,147,-1,-1,-1,149,-1,-1,-1,-1,-1,-1,-1,-1,-1,-1,-1,-1,-1,-1,-1,-1,-1,-1,-1,-1,-1,-1,-1,-1,-1,-1,-1,-1,-1,-1,-1,-1,-1,-1,-1],"loss_changes":[9.913882E3,7.850572E2,3.2540957E3,1.8110715E3,4.7782637E3,2.0298125E3,3.6240923E3,7.2623785E2,2.083003E3,9.9169434E2,5.34122E2,4.003789E2,0E0,2.7576404E2,3.583436E3,8.729227E1,8.080484E1,7.312695E1,8.384543E2,0E0,1.8501887E3,2.0643518E3,1.3891746E3,2.3584155E2,0E0,2.3624017E2,0E0,8.57666E1,0E0,0E0,3.88163E0,1.3828952E2,1.9466287E2,7.4299316E0,3.8106934E1,1.4249054E1,2.3668774E2,1.1216812E0,0E0,9.6924524E2,2.5063477E0,1.6051599E2,1.0669284E2,0E0,3.4034558E2,3.2423859E0,1.8294707E2,0E0,0E0,0E0,0E0,3.0733087E2,1.7357271E1,3.4739136E1,1.3009502E2,0E0,2.6190186E0,6.725073E1,0E0,5.427927E1,4.2390366E1,3.3499744E2,1.6770264E2,0E0,0E0,6.1117163E2,6.142236E2,7.479492E0,0E0,1.3279016E2,2.6846906E2,1.4134438E2,2.8708542E1,0E0,4.159668E0,0E0,0E0,0E0,5.6635124E1,2.0369566E1,0E0,0E0,0E0,0E0,3.778488E1,3.5237713E0,0E0,0E0,0E0,1.0763062E1,0E0,2.293753E1,0E0,0E0,0E0,4.40011E1,8.106678E0,0E0,1.792398E2,4.841224E2,4.4784802E2,0E0,1.4560999E2,3.001831E0,0E0,0E0,0E0,6.3188896E0,0E0,7.3590866E1,7.283445E1,2.568808E1,0E0,0E0,0E0,1.1893463E0,0E0,0E0,0E0,0E0,0E0,0E0,0E0,0E0,0E0,0E0,0E0,0E0,0E0,0E0,0E0,0E0,0E0,0E0,0E0,0E0,0E0,0E0,0E0,0E0,0E0,0E0,0E0,0E0,0E0,0E0,0E0,0E0,0E0,0E0,0E0],"parents":[2147483647,0,0,1,1,2,2,3,3,4,4,5,5,6,6,7,7,8,8,9,9,10,10,11,11,13,13,14,14,15,15,16,16,17,17,18,18,20,20,21,21,22,22,23,23,25,25,27,27,30,30,31,31,32,32,33,33,34,34,35,35,36,36,37,37,39,39,40,40,41,41,42,42,44,44,45,45,46,46,51,51,52,52,53,53,54,54,56,56,57,57,59,59,60,60,61,61,62,62,65,65,66,66,67,67,69,69,70,70,71,71,72,72,74,74,78,78,79,79,84,84,85,85,89,89,91,91,95,95,96,96,98,98,99,99,100,100,102,102,103,103,107,107,109,109,110,110,111,111,115,115],"right_children":[2,4,6,8,10,12,14,16,18,20,22,24,-1,26,28,30,32,34,36,-1,38,40,42,44,-1,46,-1,48,-1,-1,50,52,54,56,58,60,62,64,-1,66,68,70,72,-1,74,76,78,-1,-1,-1,-1,80,82,84,86,-1,88,90,-1,92,94,96,98,-1,-1,100,102,104,-1,106,108,110,112,-1,114,-1,-1,-1,116,118,-1,-1,-1,-1,120,122,-1,-1,-1,124,-1,126,-1,-1,-1,128,130,-1,132,134,136,-1,138,140,-1,-1,-1,142,-1,144,146,148,-1,-1,-1,150,-1,-1,-1,-1,-1,-1,-1,-1,-1,-1,-1,-1,-1,-1,-1,-1,-1,-1,-1,-1,-1,-1,-1,-1,-1,-1,-1,-1,-1,-1,-1,-1,-1,-1,-1],"split_conditions":[4.531E3,8.31E2,4.645E3,3.21E2,9.06E2,4.626E3,4.777E3,5.6E1,4.72E2,8.5E2,4.097E3,4.607E3,1.4194693E-1,4.758E3,4.815E3,1.8E1,1.88E2,3.77E2,6.04E2,1.0335254E-1,8.87E2,3.983E3,4.21E3,4.55E3,8.864199E-2,4.682E3,2.6809255E-2,4.796E3,-9.130884E-3,-3.2484196E-2,3.7E1,1.51E2,2.64E2,3.4E2,4.53E2,5.66E2,7.36E2,8.69E2,1.0065788E-1,3.832E3,4.078E3,4.153E3,4.38E3,7.3138826E-2,4.569E3,4.663E3,4.701E3,1.0201263E-1,1.2454453E-1,-1.0593386E-2,-1.5406731E-2,1.32E2,1.7E2,2.07E2,3.02E2,-4.3812092E-2,3.58E2,4.34E2,-2.7600167E-2,5.47E2,5.85E2,6.99E2,7.55E2,1.2220799E-2,9.519542E-3,3.265E3,3.851E3,4.059E3,-3.1847265E-2,4.134E3,4.191E3,4.286E3,4.512E3,1.7407333E-2,4.588E3,9.382479E-3,1.3846101E-2,-3.1061744E-2,4.739E3,1.13E2,3.690511E-2,-1.6640786E-3,-1.183921E-2,3.0194975E-2,2.26E2,2.83E2,1.916852E-2,-5.198057E-2,-4.758578E-2,3.96E2,-5.1489007E-2,5.1E2,-6.0957456E-3,1.826114E-2,2.587279E-3,6.23E2,7.17E2,-4.5488615E-2,7.93E2,2.625E3,3.379E3,5.523331E-2,3.964E3,4.04E3,-3.927818E-2,2.8220441E-2,5.231498E-2,4.172E3,4.1532565E-2,4.229E3,4.323E3,4.493E3,-1.5715968E-2,5.8481447E-2,5.3154994E-2,4.72E3,5.941897E-3,5.818644E-3,-3.023018E-3,1.0038117E-2,2.285742E-2,-6.812948E-3,-2.2742E-3,-3.9985944E-2,-3.3023875E-2,3.850924E-3,1.2058188E-2,-7.7242567E-3,-2.0351699E-2,1.1994475E-2,5.0301114E-3,-9.426954E-3,-3.2201704E-2,-3.7444278E-3,3.7987987E-3,-2.338724E-2,-6.9584996E-3,7.017379E-3,2.9179873E-2,-3.485107E-2,-3.1234376E-2,4.3647755E-3,1.0432292E-2,6.4641344E-3,-1.034458E-2,1.5517055E-2,2.1634917E-3,-7.3155686E-3,1.9826323E-3,-1.1055616E-2,-8.337744E-3],"split_indices":[1,1,1,1,1,1,1,1,1,1,1,1,0,1,1,1,1,1,1,0,1,1,1,1,0,1,0,1,0,0,1,1,1,1,1,1,1,1,0,1,1,1,1,0,1,1,1,0,0,0,0,1,1,1,1,0,1,1,0,1,1,1,1,0,0,1,1,1,0,1,1,1,1,0,1,0,0,0,1,1,0,0,0,0,1,1,0,0,0,1,0,1,0,0,0,1,1,0,1,1,1,0,1,1,0,0,0,1,0,1,1,1,0,0,0,1,0,0,0,0,0,0,0,0,0,0,0,0,0,0,0,0,0,0,0,0,0,0,0,0,0,0,0,0,0,0,0,0,0,0,0],"split_type":[0,0,0,0,0,0,0,0,0,0,0,0,0,0,0,0,0,0,0,0,0,0,0,0,0,0,0,0,0,0,0,0,0,0,0,0,0,0,0,0,0,0,0,0,0,0,0,0,0,0,0,0,0,0,0,0,0,0,0,0,0,0,0,0,0,0,0,0,0,0,0,0,0,0,0,0,0,0,0,0,0,0,0,0,0,0,0,0,0,0,0,0,0,0,0,0,0,0,0,0,0,0,0,0,0,0,0,0,0,0,0,0,0,0,0,0,0,0,0,0,0,0,0,0,0,0,0,0,0,0,0,0,0,0,0,0,0,0,0,0,0,0,0,0,0,0,0,0,0,0,0],"sum_hessian":[7.45843E5,6.98932E5,4.6911E4,1.28284E5,5.70648E5,1.7591E4,2.932E4,4.9663E4,7.8621E4,1.159E4,5.59058E5,1.4652E4,2.939E3,2.0381E4,8.939E3,8.785E3,4.0878E4,2.33E4,5.5321E4,2.935E3,8.655E3,4.92131E5,6.6927E4,1.1726E4,2.926E3,1.7445E4,2.936E3,5.849E3,3.09E3,2.925E3,5.86E3,2.0371E4,2.0507E4,8.65E3,1.465E4,2.0349E4,3.4972E4,5.709E3,2.946E3,4.74544E5,1.7587E4,1.7448E4,4.9479E4,2.942E3,8.784E3,5.709E3,1.1736E4,2.926E3,2.923E3,2.928E3,2.932E3,1.4675E4,5.696E3,1.1712E4,8.795E3,2.93E3,5.72E3,1.1719E4,2.931E3,1.4498E4,5.851E3,2.034E4,1.4632E4,2.929E3,2.78E3,4.51266E5,2.3278E4,1.4659E4,2.928E3,8.655E3,8.793E3,2.6222E4,2.3257E4,2.931E3,5.853E3,2.771E3,2.938E3,2.922E3,8.814E3,1.1745E4,2.93E3,2.926E3,2.77E3,2.923E3,8.789E3,5.857E3,2.938E3,2.783E3,2.937E3,8.787E3,2.932E3,1.1561E4,2.937E3,2.932E3,2.919E3,1.4625E4,5.715E3,2.927E3,1.1705E4,3.6383E5,8.7436E4,2.933E3,2.0345E4,1.1716E4,2.943E3,5.717E3,2.938E3,5.872E3,2.921E3,1.1746E4,1.4476E4,2.0323E4,2.934E3,2.922E3,2.931E3,5.886E3,2.928E3,8.813E3,2.932E3,2.934E3,5.855E3,2.917E3,2.94E3,2.924E3,5.863E3,5.865E3,5.696E3,2.931E3,1.1694E4,2.784E3,2.931E3,5.833E3,5.872E3,2.65046E5,9.8784E4,1.7567E4,6.9869E4,1.7414E4,2.931E3,8.783E3,2.933E3,2.938E3,2.934E3,2.934E3,8.812E3,5.711E3,8.765E3,1.7393E4,2.93E3,2.941E3,2.945E3],"tree_param":{"num_deleted":"0","num_feature":"2","num_nodes":"151","size_leaf_vector":"1"}},{"base_weights":[-3.2215167E-4,-2.7708812E-2,4.0777874E-1,-9.2344046E-2,-1.3175188E-2,7.1789616E-1,2.2170968E-1,4.4679265E-2,-1.7874959E-1,5.618E-1,-2.509039E-2,4.9901175E-1,1.155415E0,8.987715E-3,7.052934E-1,-1.5324798E-1,1.05793424E-1,-4.0638548E-1,-8.307829E-2,9.434011E-2,4.0416506E-1,-3.564521E-2,5.2503295E-2,6.649899E-2,4.240643E-1,8.3732784E-2,1.2870201E-1,-3.4987923E-2,2.4934378E-2,1.1244922E0,-8.268947E-3,-2.8738843E-2,-1.0007821E-1,1.2829596E-1,3.1153087E-2,-4.742511E-1,-3.662718E-1,6.1333653E-2,-1.6692989E-1,9.629026E-3,9.097541E-2,-2.4253557E-2,-3.4332508E-1,2.743877E-1,-2.564786E-2,1.6174464E-2,5.486086E-1,1.2101309E-1,-1.1083963E-1,9.304234E-2,1.13836884E-1,-1.3114427E-1,-3.490853E-3,7.129169E-2,2.1327494E-1,-4.8968326E-2,1.7621035E-2,-3.9938685E-2,-4.9467736E-1,-3.896487E-1,-2.504824E-2,4.4078857E-2,1.039926E-1,-1.0524627E-1,-2.526626E-1,-3.3604715E-2,1.5705843E-1,-3.4787112E-1,-2.9467588E-2,3.615547E-1,1.8854108E-1,1.4725902E-2,-7.107863E-2,5.346979E-2,4.7432493E-2,9.222291E-3,1.2923214E-2,-2.816625E-2,-4.5642164E-2,-9.959068E-3,-1.4138898E-2,1.3691299E-1,-6.363991E-2,2.7892675E-2,1.832657E-1,-6.4385873E-3,-2.5616311E-3,-4.775548E-2,-4.332938E-2,-3.4994948E-1,-4.6777446E-2,7.081392E-2,-5.631546E-3,1.7200686E-2,1.9460715E-3,-1.8028374E-1,8.7594524E-2,-4.1188933E-2,-2.0359401E-1,-8.501464E-3,-8.1883386E-2,5.0756156E-2,1.00019485E-1,-3.3782065E-1,-3.5656378E-2,2.8280842E-1,4.733418E-2,7.6942675E-2,3.7935648E-2,-5.7563413E-2,7.314992E-2,-5.780541E-2,-1.5019118E-2,-9.043164E-3,5.496487E-3,5.2476013E-3,3.4557626E-2,-8.689959E-4,-1.1114689E-2,1.2594136E-2,2.5401993E-2,-3.65384E-2,-2.9990543E-2,2.7200417E-3,1.0394798E-2,-7.2078337E-3,-1.8922893E-2,1.1795106E-2,4.510671E-3,-8.499485E-3,-2.8970273E-2,-3.4292897E-3,2.1306861E-2,-3.3134867E-2,-4.2741904E-3,2.0714233E-2,4.5348583E-3,-3.1880144E-2,-2.861589E-2,2.4994304E-2,2.7059777E-2,3.962263E-3,1.0157739E-2,6.430144E-3,-9.213403E-3,1.4130697E-2,1.9328143E-3,-6.642515E-3,2.5703008E-3],"categories":[],"categories_nodes":[],"categories_segments":[],"categories_sizes":[],"default_left":[0,0,0,0,0,0,0,0,0,0,0,0,0,0,0,0,0,0,0,0,0,0,0,0,0,0,0,0,0,0,0,0,0,0,0,0,0,0,0,0,0,0,0,0,0,0,0,0,0,0,0,0,0,0,0,0,0,0,0,0,0,0,0,0,0,0,0,0,0,0,0,0,0,0,0,0,0,0,0,0,0,0,0,0,0,0,0,0,0,0,0,0,0,0,0,0,0,0,0,0,0,0,0,0,0,0,0,0,0,0,0,0,0,0,0,0,0,0,0,0,0,0,0,0,0,0,0,0,0,0,0,0,0,0,0,0,0,0,0,0,0,0,0,0,0,0,0,0,0],"id":3,"left_children":[1,3,5,7,9,11,13,15,17,19,21,23,25,27,29,31,33,35,37,-1,39,41,43,-1,45,-1,-1,47,-1,49,-1,-1,51,53,55,57,59,61,63,-1,-1,65,67,69,71,-1,73,75,77,-1,-1,79,-1,81,83,85,-1,-1,87,89,-1,91,93,95,97,99,101,103,-1,105,107,109,111,-1,-1,-1,-1,-1,113,-1,-1,115,117,-1,119,-1,-1,-1,-1,121,-1,123,-1,-1,-1,125,127,-1,129,131,133,-1,135,137,-1,139,-1,141,-1,143,145,147,-1,-1,-1,-1,-1,-1,-1,-1,-1,-1,-1,-1,-1,-1,-1,-1,-1,-1,-1,-1,-1,-1,-1,-1,-1,-1,-1,-1,-1,-1,-1,-1,-1,-1,-1,-1,-1],"loss_changes":[8.335862E3,6.56535E2,2.705995E3,1.519146E3,3.9092249E3,1.6832295E3,3.0154656E3,6.0017334E2,1.7134707E3,8.464238E2,4.5785608E2,1.9619458E2,3.4867383E2,2.3482013E2,2.985851E3,9.8903595E1,6.3609924E1,6.2919434E1,6.7096765E2,0E0,1.5146879E3,1.7247214E3,1.1608257E3,0E0,2.71302E2,0E0,0E0,2.063194E2,0E0,7.319629E1,0E0,0E0,1.6865273E1,1.4096457E2,1.13031395E2,6.5305176E0,3.1795898E1,1.49149475E1,1.8521167E2,0E0,0E0,8.04548E2,1.4765625E0,1.3020251E2,9.0819046E1,0E0,5.6468506E0,2.1959305E0,1.4933824E2,0E0,0E0,2.8978958E0,0E0,1.544273E2,3.1336365E1,2.5607262E0,0E0,0E0,2.729004E0,5.4867065E1,0E0,4.082804E1,4.0170685E1,2.9510773E2,1.401225E2,5.4689417E2,5.237976E2,5.468994E0,0E0,1.0385193E2,2.1941458E2,1.1068284E2,2.8419464E1,0E0,0E0,0E0,0E0,0E0,4.8894054E1,0E0,0E0,2.2359322E2,1.7628006E1,0E0,3.7571533E1,0E0,0E0,0E0,0E0,9.539307E0,0E0,2.0071934E1,0E0,0E0,0E0,3.7974487E1,8.871311E0,0E0,1.4499161E2,2.0526587E3,1.5216162E3,0E0,1.2900603E2,2.4058838E0,0E0,4.3026733E-1,0E0,6.588932E0,0E0,6.3631733E1,6.075659E1,2.520945E1,0E0,0E0,0E0,0E0,0E0,0E0,0E0,0E0,0E0,0E0,0E0,0E0,0E0,0E0,0E0,0E0,0E0,0E0,0E0,0E0,0E0,0E0,0E0,0E0,0E0,0E0,0E0,0E0,0E0,0E0,0E0,0E0,0E0,0E0,0E0,0E0,0E0],"parents":[2147483647,0,0,1,1,2,2,3,3,4,4,5,5,6,6,7,7,8,8,9,9,10,10,11,11,12,12,13,13,14,14,15,15,16,16,17,17,18,18,20,20,21,21,22,22,24,24,27,27,29,29,32,32,33,33,34,34,35,35,36,36,37,37,38,38,41,41,42,42,43,43,44,44,46,46,47,47,48,48,51,51,53,53,54,54,55,55,58,58,59,59,61,61,62,62,63,63,64,64,65,65,66,66,67,67,69,69,70,70,71,71,72,72,78,78,81,81,82,82,84,84,89,89,91,91,95,95,96,96,98,98,99,99,100,100,102,102,103,103,105,105,107,107,109,109,110,110,111,111],"right_children":[2,4,6,8,10,12,14,16,18,20,22,24,26,28,30,32,34,36,38,-1,40,42,44,-1,46,-1,-1,48,-1,50,-1,-1,52,54,56,58,60,62,64,-1,-1,66,68,70,72,-1,74,76,78,-1,-1,80,-1,82,84,86,-1,-1,88,90,-1,92,94,96,98,100,102,104,-1,106,108,110,112,-1,-1,-1,-1,-1,114,-1,-1,116,118,-1,120,-1,-1,-1,-1,122,-1,124,-1,-1,-1,126,128,-1,130,132,134,-1,136,138,-1,140,-1,142,-1,144,146,148,-1,-1,-1,-1,-1,-1,-1,-1,-1,-1,-1,-1,-1,-1,-1,-1,-1,-1,-1,-1,-1,-1,-1,-1,-1,-1,-1,-1,-1,-1,-1,-1,-1,-1,-1,-1,-1],"split_conditions":[4.531E3,8.31E2,4.645E3,3.21E2,9.06E2,4.607E3,4.777E3,7.5E1,4.72E2,8.5E2,4.097E3,4.55E3,4.626E3,4.758E3,4.815E3,1.8E1,2.64E2,3.77E2,6.04E2,9.434011E-2,8.87E2,3.983E3,4.21E3,6.649899E-2,4.569E3,8.3732784E-2,1.2870201E-1,4.682E3,2.4934378E-2,4.796E3,-8.268947E-3,-2.8738843E-2,5.6E1,1.88E2,3.02E2,3.4E2,4.53E2,5.66E2,7.36E2,9.629026E-3,9.097541E-2,3.832E3,4.078E3,4.153E3,4.38E3,1.6174464E-2,4.588E3,4.663E3,4.701E3,9.304234E-2,1.13836884E-1,3.7E1,-3.490853E-3,1.51E2,2.07E2,2.83E2,1.7621035E-2,-3.9938685E-2,3.58E2,4.34E2,-2.504824E-2,5.47E2,5.85E2,6.99E2,7.55E2,2.831E3,3.851E3,4.059E3,-2.9467588E-2,4.134E3,4.191E3,4.286E3,4.512E3,5.346979E-2,4.7432493E-2,9.222291E-3,1.2923214E-2,-2.816625E-2,4.739E3,-9.959068E-3,-1.4138898E-2,1.32E2,1.7E2,2.7892675E-2,2.45E2,-6.4385873E-3,-2.5616311E-3,-4.775548E-2,-4.332938E-2,3.96E2,-4.6777446E-2,5.1E2,-5.631546E-3,1.7200686E-2,1.9460715E-3,6.23E2,7.17E2,-4.1188933E-2,7.93E2,2.625E3,2.944E3,5.0756156E-2,3.889E3,4.04E3,-3.5656378E-2,4.116E3,4.733418E-2,4.172E3,3.7935648E-2,4.229E3,4.323E3,4.493E3,-1.5019118E-2,-9.043164E-3,5.496487E-3,5.2476013E-3,3.4557626E-2,-8.689959E-4,-1.1114689E-2,1.2594136E-2,2.5401993E-2,-3.65384E-2,-2.9990543E-2,2.7200417E-3,1.0394798E-2,-7.2078337E-3,-1.8922893E-2,1.1795106E-2,4.510671E-3,-8.499485E-3,-2.8970273E-2,-3.4292897E-3,2.1306861E-2,-3.3134867E-2,-4.2741904E-3,2.0714233E-2,4.5348583E-3,-3.1880144E-2,-2.861589E-2,2.4994304E-2,2.7059777E-2,3.962263E-3,1.0157739E-2,6.430144E-3,-9.213403E-3,1.4130697E-2,1.9328143E-3,-6.642515E-3,2.5703008E-3],"split_indices":[1,1,1,1,1,1,1,1,1,1,1,1,1,1,1,1,1,1,1,0,1,1,1,0,1,0,0,1,0,1,0,0,1,1,1,1,1,1,1,0,0,1,1,1,1,0,1,1,1,0,0,1,0,1,1,1,0,0,1,1,0,1,1,1,1,1,1,1,0,1,1,1,1,0,0,0,0,0,1,0,0,1,1,0,1,0,0,0,0,1,0,1,0,0,0,1,1,0,1,1,1,0,1,1,0,1,0,1,0,1,1,1,0,0,0,0,0,0,0,0,0,0,0,0,0,0,0,0,0,0,0,0,0,0,0,0,0,0,0,0,0,0,0,0,0,0,0,0,0],"split_type":[0,0,0,0,0,0,0,0,0,0,0,0,0,0,0,0,0,0,0,0,0,0,0,0,0,0,0,0,0,0,0,0,0,0,0,0,0,0,0,0,0,0,0,0,0,0,0,0,0,0,0,0,0,0,0,0,0,0,0,0,0,0,0,0,0,0,0,0,0,0,0,0,0,0,0,0,0,0,0,0,0,0,0,0,0,0,0,0,0,0,0,0,0,0,0,0,0,0,0,0,0,0,0,0,0,0,0,0,0,0,0,0,0,0,0,0,0,0,0,0,0,0,0,0,0,0,0,0,0,0,0,0,0,0,0,0,0,0,0,0,0,0,0,0,0,0,0,0,0],"sum_hessian":[7.4585E5,6.98947E5,4.6903E4,1.28305E5,5.70642E5,1.7587E4,2.9316E4,4.9617E4,7.8688E4,1.1584E4,5.59058E5,1.1724E4,5.863E3,2.0361E4,8.955E3,1.1704E4,3.7913E4,2.3283E4,5.5405E4,2.936E3,8.648E3,4.92122E5,6.6936E4,2.936E3,8.788E3,2.928E3,2.935E3,1.7435E4,2.926E3,5.864E3,3.091E3,2.927E3,8.777E3,2.9126E4,8.787E3,8.643E3,1.464E4,2.0351E4,3.5054E4,5.721E3,2.927E3,4.74554E5,1.7568E4,1.7436E4,4.95E4,2.938E3,5.85E3,5.702E3,1.1733E4,2.943E3,2.921E3,5.846E3,2.931E3,1.7436E4,1.169E4,5.859E3,2.928E3,2.934E3,5.709E3,1.1717E4,2.923E3,1.4498E4,5.853E3,2.039E4,1.4664E4,4.51282E5,2.3272E4,1.4637E4,2.931E3,8.648E3,8.788E3,2.6204E4,2.3296E4,2.917E3,2.933E3,2.776E3,2.926E3,2.933E3,8.8E3,2.917E3,2.929E3,1.1733E4,5.703E3,2.918E3,8.772E3,2.924E3,2.935E3,2.778E3,2.931E3,8.79E3,2.927E3,1.1566E4,2.932E3,2.92E3,2.933E3,1.468E4,5.71E3,2.943E3,1.1721E4,2.96909E5,1.54373E5,2.936E3,2.0336E4,1.1701E4,2.936E3,5.714E3,2.934E3,5.867E3,2.921E3,1.1709E4,1.4495E4,2.037E4,2.926E3,5.87E3,2.93E3,8.795E3,2.938E3,2.933E3,2.77E3,5.858E3,2.914E3,2.936E3,5.854E3,5.856E3,5.71E3,2.939E3,1.1741E4,2.773E3,2.937E3,5.869E3,5.852E3,2.65134E5,3.1775E4,1.7417E4,1.36956E5,5.859E3,1.4477E4,8.776E3,2.925E3,2.932E3,2.782E3,2.925E3,2.942E3,2.931E3,8.778E3,5.694E3,8.801E3,1.7442E4,2.928E3],"tree_param":{"num_deleted":"0","num_feature":"2","num_nodes":"149","size_leaf_vector":"1"}},{"base_weights":[2.6288631E-4,-2.45339E-2,3.6971277E-1,-8.273023E-2,-1.1436412E-2,6.5335673E-1,1.9955169E-1,3.9641198E-2,-1.600993E-1,5.04416E-1,-2.2087418E-2,4.5297062E-1,1.0562953E0,7.772036E-3,6.3607174E-1,-1.7861375E-1,8.6734235E-2,-3.660966E-1,-7.367477E-2,8.48578E-2,3.62429E-1,-3.1428162E-2,4.6613425E-2,5.9973136E-2,3.8626188E-1,7.732239E-2,1.16936035E-1,-3.0764608E-2,2.1747874E-2,1.012739E0,-7.4394033E-3,-2.7392197E-2,-1.1876028E-1,5.0377715E-2,1.22706726E-1,-4.3113405E-1,-3.2759953E-1,5.946193E-2,-1.510545E-1,9.2112035E-2,8.1860825E-2,-2.1047227E-2,-3.1148475E-1,2.4234794E-1,-2.2250915E-2,1.3919313E-2,5.0299853E-1,1.10661775E-1,-9.982607E-2,8.3109014E-2,1.031013E-1,-8.829993E-3,-1.30061E-2,9.424598E-2,-6.2385574E-2,1.9310853E-1,2.8702602E-2,-3.6304906E-2,-4.496831E-1,-3.493192E-1,-2.2120984E-2,4.458807E-2,9.611485E-2,-9.6014544E-2,-2.2749175E-1,9.274009E-3,7.608718E-3,-2.9406464E-2,1.409062E-1,-3.1601274E-1,-2.6544807E-2,3.2162452E-1,1.643955E-1,1.4110372E-2,-6.32163E-2,4.8513886E-2,4.399654E-2,8.297353E-3,1.1933661E-2,-2.519519E-2,-4.1799348E-2,3.4965158E-2,3.058587E-2,-1.567088E-3,-1.0144494E-2,2.5229326E-2,1.6608754E-1,-4.072167E-2,1.5414217E-2,-4.353404E-2,-3.9277755E-2,-3.1374657E-1,-4.1967776E-2,7.0467874E-2,-5.285719E-3,1.5595101E-2,2.0227337E-3,-1.6427706E-1,7.954513E-2,-3.746927E-2,-1.8235245E-1,-1.3003093E-2,-9.7629786E-2,4.593518E-2,8.914045E-2,-3.0671957E-1,-3.2459363E-2,2.5208881E-1,4.2016618E-2,6.303848E-2,3.377917E-2,-5.1245306E-2,6.691605E-2,-5.1943187E-2,-1.2952526E-2,-9.06194E-2,5.1268646E-3,-3.0718334E-3,5.320566E-3,7.499525E-3,1.9145561E-2,-5.766546E-3,-1.7131632E-3,-3.2861713E-2,-2.6838891E-2,3.1143345E-3,9.921184E-3,-7.0814067E-3,-1.7104384E-2,1.0680264E-2,4.1064313E-3,-7.3304377E-3,-2.620111E-2,-7.4897124E-3,3.8083413E-4,-1.5528138E-2,-3.2340721E-3,5.2276715E-3,2.5854789E-2,-2.9091503E-2,-2.5544152E-2,2.2203932E-2,2.4199924E-2,3.9060297E-3,7.6778857E-3,6.0589635E-3,-8.309049E-3,1.321264E-2,1.5579006E-3,-5.9355595E-3,2.0717783E-3,-9.323083E-3,-7.3360093E-3],"categories":[],"categories_nodes":[],"categories_segments":[],"categories_sizes":[],"default_left":[0,0,0,0,0,0,0,0,0,0,0,0,0,0,0,0,0,0,0,0,0,0,0,0,0,0,0,0,0,0,0,0,0,0,0,0,0,0,0,0,0,0,0,0,0,0,0,0,0,0,0,0,0,0,0,0,0,0,0,0,0,0,0,0,0,0,0,0,0,0,0,0,0,0,0,0,0,0,0,0,0,0,0,0,0,0,0,0,0,0,0,0,0,0,0,0,0,0,0,0,0,0,0,0,0,0,0,0,0,0,0,0,0,0,0,0,0,0,0,0,0,0,0,0,0,0,0,0,0,0,0,0,0,0,0,0,0,0,0,0,0,0,0,0,0,0,0,0,0,0,0,0,0],"id":4,"left_children":[1,3,5,7,9,11,13,15,17,19,21,23,25,27,29,31,33,35,37,-1,39,41,43,-1,45,-1,-1,47,-1,49,-1,-1,51,53,55,57,59,61,63,65,-1,67,69,71,73,-1,75,77,79,-1,-1,-1,-1,81,83,85,87,-1,89,91,-1,93,95,97,99,-1,-1,101,103,105,-1,107,109,111,113,-1,-1,-1,-1,-1,115,117,-1,-1,-1,-1,119,121,-1,-1,-1,123,-1,125,-1,-1,-1,127,129,-1,131,133,135,-1,137,139,-1,141,-1,143,-1,145,147,149,-1,151,-1,-1,-1,-1,-1,-1,-1,-1,-1,-1,-1,-1,-1,-1,-1,-1,-1,-1,-1,-1,-1,-1,-1,-1,-1,-1,-1,-1,-1,-1,-1,-1,-1,-1,-1,-1,-1],"loss_changes":[6.8327314E3,5.3268665E2,2.2637065E3,1.2156364E3,3.1344312E3,1.4192197E3,2.4544902E3,5.111173E2,1.4002279E3,6.8461304E2,3.5870065E2,1.5546509E2,2.693164E2,1.7964876E2,2.417352E3,6.277585E1,5.3422302E1,5.7792725E1,5.70941E2,0E0,1.228717E3,1.4304569E3,9.0183167E2,0E0,2.4109863E2,0E0,0E0,1.7028876E2,0E0,6.7808105E1,0E0,0E0,2.9214478E0,1.00691315E2,1.3594147E2,5.3588867E0,2.7327026E1,1.1041817E1,1.4730286E2,3.83873E-1,0E0,6.423299E2,1.5064697E0,1.0736786E2,7.3734314E1,0E0,2.9592285E0,2.1321487E0,1.18244484E2,0E0,0E0,0E0,0E0,2.068762E2,1.23255005E1,2.5571991E1,8.4970604E1,0E0,2.545044E0,4.4071655E1,0E0,3.830092E1,3.1879639E1,2.4428877E2,1.18834045E2,0E0,0E0,5.0489685E2,4.3194553E2,4.6815186E0,0E0,8.077472E1,1.8043573E2,9.046916E1,2.0280518E1,0E0,0E0,0E0,0E0,0E0,4.1880272E1,1.8376884E1,0E0,0E0,0E0,0E0,3.1259033E1,2.8153553E0,0E0,0E0,0E0,8.041199E0,0E0,1.57788315E1,0E0,0E0,0E0,2.7680145E1,7.2114143E0,0E0,1.23288574E2,4.268029E2,3.8892072E2,0E0,1.2603909E2,2.953247E0,0E0,4.176941E-1,0E0,2.4086227E0,0E0,5.364537E1,5.555326E1,1.9087425E1,0E0,6.025467E-1,0E0,0E0,0E0,0E0,0E0,0E0,0E0,0E0,0E0,0E0,0E0,0E0,0E0,0E0,0E0,0E0,0E0,0E0,0E0,0E0,0E0,0E0,0E0,0E0,0E0,0E0,0E0,0E0,0E0,0E0,0E0,0E0,0E0,0E0,0E0,0E0,0E0],"parents":[2147483647,0,0,1,1,2,2,3,3,4,4,5,5,6,6,7,7,8,8,9,9,10,10,11,11,12,12,13,13,14,14,15,15,16,16,17,17,18,18,20,20,21,21,22,22,24,24,27,27,29,29,32,32,33,33,34,34,35,35,36,36,37,37,38,38,39,39,41,41,42,42,43,43,44,44,46,46,47,47,48,48,53,53,54,54,55,55,56,56,58,58,59,59,61,61,62,62,63,63,64,64,67,67,68,68,69,69,71,71,72,72,73,73,74,74,80,80,81,81,86,86,87,87,91,91,93,93,97,97,98,98,100,100,101,101,102,102,104,104,105,105,107,107,109,109,111,111,112,112,113,113,115,115],"right_children":[2,4,6,8,10,12,14,16,18,20,22,24,26,28,30,32,34,36,38,-1,40,42,44,-1,46,-1,-1,48,-1,50,-1,-1,52,54,56,58,60,62,64,66,-1,68,70,72,74,-1,76,78,80,-1,-1,-1,-1,82,84,86,88,-1,90,92,-1,94,96,98,100,-1,-1,102,104,106,-1,108,110,112,114,-1,-1,-1,-1,-1,116,118,-1,-1,-1,-1,120,122,-1,-1,-1,124,-1,126,-1,-1,-1,128,130,-1,132,134,136,-1,138,140,-1,142,-1,144,-1,146,148,150,-1,152,-1,-1,-1,-1,-1,-1,-1,-1,-1,-1,-1,-1,-1,-1,-1,-1,-1,-1,-1,-1,-1,-1,-1,-1,-1,-1,-1,-1,-1,-1,-1,-1,-1,-1,-1,-1,-1],"split_conditions":[4.531E3,8.31E2,4.645E3,3.21E2,9.06E2,4.607E3,4.777E3,5.6E1,4.72E2,8.5E2,4.097E3,4.55E3,4.626E3,4.758E3,4.815E3,1.8E1,1.88E2,3.77E2,6.04E2,8.48578E-2,8.87E2,3.983E3,4.21E3,5.9973136E-2,4.569E3,7.732239E-2,1.16936035E-1,4.682E3,2.1747874E-2,4.796E3,-7.4394033E-3,-2.7392197E-2,3.7E1,1.51E2,2.64E2,3.4E2,4.53E2,5.66E2,7.36E2,8.69E2,8.1860825E-2,3.832E3,4.078E3,4.153E3,4.38E3,1.3919313E-2,4.588E3,4.663E3,4.701E3,8.3109014E-2,1.031013E-1,-8.829993E-3,-1.30061E-2,1.32E2,1.7E2,2.07E2,3.02E2,-3.6304906E-2,3.58E2,4.34E2,-2.2120984E-2,5.47E2,5.85E2,6.99E2,7.55E2,9.274009E-3,7.608718E-3,3.265E3,3.851E3,4.059E3,-2.6544807E-2,4.134E3,4.191E3,4.286E3,4.512E3,4.8513886E-2,4.399654E-2,8.297353E-3,1.1933661E-2,-2.519519E-2,4.739E3,7.5E1,3.058587E-2,-1.567088E-3,-1.0144494E-2,2.5229326E-2,2.26E2,2.83E2,1.5414217E-2,-4.353404E-2,-3.9277755E-2,3.96E2,-4.1967776E-2,5.1E2,-5.285719E-3,1.5595101E-2,2.0227337E-3,6.23E2,7.17E2,-3.746927E-2,7.93E2,1.379E3,3.53E3,4.593518E-2,3.964E3,4.04E3,-3.2459363E-2,4.116E3,4.2016618E-2,4.172E3,3.377917E-2,4.229E3,4.323E3,4.493E3,-1.2952526E-2,4.72E3,5.1268646E-3,-3.0718334E-3,5.320566E-3,7.499525E-3,1.9145561E-2,-5.766546E-3,-1.7131632E-3,-3.2861713E-2,-2.6838891E-2,3.1143345E-3,9.921184E-3,-7.0814067E-3,-1.7104384E-2,1.0680264E-2,4.1064313E-3,-7.3304377E-3,-2.620111E-2,-7.4897124E-3,3.8083413E-4,-1.5528138E-2,-3.2340721E-3,5.2276715E-3,2.5854789E-2,-2.9091503E-2,-2.5544152E-2,2.2203932E-2,2.4199924E-2,3.9060297E-3,7.6778857E-3,6.0589635E-3,-8.309049E-3,1.321264E-2,1.5579006E-3,-5.9355595E-3,2.0717783E-3,-9.323083E-3,-7.3360093E-3],"split_indices":[1,1,1,1,1,1,1,1,1,1,1,1,1,1,1,1,1,1,1,0,1,1,1,0,1,0,0,1,0,1,0,0,1,1,1,1,1,1,1,1,0,1,1,1,1,0,1,1,1,0,0,0,0,1,1,1,1,0,1,1,0,1,1,1,1,0,0,1,1,1,0,1,1,1,1,0,0,0,0,0,1,1,0,0,0,0,1,1,0,0,0,1,0,1,0,0,0,1,1,0,1,1,1,0,1,1,0,1,0,1,0,1,1,1,0,1,0,0,0,0,0,0,0,0,0,0,0,0,0,0,0,0,0,0,0,0,0,0,0,0,0,0,0,0,0,0,0,0,0,0,0,0,0],"split_type":[0,0,0,0,0,0,0,0,0,0,0,0,0,0,0,0,0,0,0,0,0,0,0,0,0,0,0,0,0,0,0,0,0,0,0,0,0,0,0,0,0,0,0,0,0,0,0,0,0,0,0,0,0,0,0,0,0,0,0,0,0,0,0,0,0,0,0,0,0,0,0,0,0,0,0,0,0,0,0,0,0,0,0,0,0,0,0,0,0,0,0,0,0,0,0,0,0,0,0,0,0,0,0,0,0,0,0,0,0,0,0,0,0,0,0,0,0,0,0,0,0,0,0,0,0,0,0,0,0,0,0,0,0,0,0,0,0,0,0,0,0,0,0,0,0,0,0,0,0,0,0,0,0],"sum_hessian":[7.45819E5,6.98909E5,4.691E4,1.28391E5,5.70518E5,1.7588E4,2.9322E4,4.973E4,7.8661E4,1.154E4,5.58978E5,1.1748E4,5.84E3,2.0373E4,8.949E3,8.824E3,4.0906E4,2.3246E4,5.5415E4,2.923E3,8.617E3,4.9208E5,6.6898E4,2.945E3,8.803E3,2.92E3,2.92E3,1.7434E4,2.939E3,5.867E3,3.082E3,2.946E3,5.878E3,2.0351E4,2.0555E4,8.637E3,1.4609E4,2.0367E4,3.5048E4,5.699E3,2.918E3,4.74494E5,1.7586E4,1.7412E4,4.9486E4,2.924E3,5.879E3,5.718E3,1.1716E4,2.928E3,2.939E3,2.944E3,2.934E3,1.4654E4,5.697E3,1.175E4,8.805E3,2.929E3,5.708E3,1.1687E4,2.922E3,1.4497E4,5.87E3,2.038E4,1.4668E4,2.926E3,2.773E3,4.51208E5,2.3286E4,1.4656E4,2.93E3,8.629E3,8.783E3,2.6211E4,2.3275E4,2.931E3,2.948E3,2.774E3,2.944E3,2.926E3,8.79E3,1.1737E4,2.917E3,2.932E3,2.765E3,2.928E3,8.822E3,5.869E3,2.936E3,2.773E3,2.935E3,8.776E3,2.911E3,1.1568E4,2.929E3,2.945E3,2.925E3,1.4676E4,5.704E3,2.939E3,1.1729E4,3.63755E5,8.7453E4,2.936E3,2.035E4,1.1723E4,2.933E3,5.702E3,2.927E3,5.859E3,2.924E3,1.171E4,1.4501E4,2.0329E4,2.946E3,5.861E3,2.929E3,2.939E3,8.798E3,2.936E3,5.886E3,2.932E3,2.937E3,2.928E3,5.848E3,5.853E3,5.715E3,2.927E3,1.1749E4,2.778E3,2.926E3,5.864E3,5.865E3,7.2876E4,2.90879E5,4.0862E4,4.6591E4,1.7422E4,2.928E3,8.79E3,2.933E3,2.928E3,2.774E3,2.932E3,2.927E3,2.928E3,8.782E3,5.715E3,8.786E3,1.7393E4,2.936E3,2.922E3,2.939E3],"tree_param":{"num_deleted":"0","num_feature":"2","num_nodes":"153","size_leaf_vector":"1"}},{"base_weights":[2.3519258E-4,1.3892119E-2,-1.3373667E-2,-4.6796508E-2,7.35356E-2,3.226453E-2,-7.315453E-2,3.1824242E-3,9.225386E-2,1.2805816E-3,4.6538E-3,-7.825558E-2,-6.295301E-2,9.465219E-3,7.57422E-3,-7.1736336E-2,-8.477433E-2,-4.5199255E-3,-7.057854E-3,-7.4696313E-3,-5.724708E-3,-8.450053E-3,-7.14197E-3],"categories":[],"categories_nodes":[],"categories_segments":[],"categories_sizes":[],"default_left":[0,0,0,0,0,0,0,0,0,0,0,0,0,0,0,0,0,0,0,0,0,0,0],"id":5,"left_children":[1,-1,3,5,7,9,11,-1,13,-1,-1,15,17,-1,-1,19,21,-1,-1,-1,-1,-1,-1],"loss_changes":[1.5315671E3,0E0,1.9880825E3,1.0301444E3,1.38479E2,4.153859E1,1.922998E1,0E0,1.346521E1,0E0,0E0,1.0432007E1,2.3477722E1,0E0,0E0,1.1058777E1,6.1713257E0,0E0,0E0,0E0,0E0,0E0,0E0],"parents":[2147483647,0,0,2,2,3,3,4,4,5,5,6,6,8,8,11,11,12,12,15,15,16,16],"right_children":[2,-1,4,6,8,10,12,-1,14,-1,-1,16,18,-1,-1,20,22,-1,-1,-1,-1,-1,-1],"split_conditions":[2E0,1.3892119E-2,1E1,4E0,1.1E1,3E0,8E0,3.1824242E-3,1.2E1,1.2805816E-3,4.6538E-3,6E0,9E0,9.465219E-3,7.57422E-3,5E0,7E0,-4.5199255E-3,-7.057854E-3,-7.4696313E-3,-5.724708E-3,-8.450053E-3,-7.14197E-3],"split_indices":[0,0,0,0,0,0,0,0,0,0,0,0,0,0,0,0,0,0,0,0,0,0,0],"split_type":[0,0,0,0,0,0,0,0,0,0,0,0,0,0,0,0,0,0,0,0,0,0,0],"sum_hessian":[7.46187E5,6.1761E4,6.84426E5,4.94327E5,1.90099E5,1.23593E5,3.70734E5,6.173E4,1.28369E5,6.1803E4,6.179E4,2.47121E5,1.23613E5,6.1771E4,6.6598E4,1.23592E5,1.23529E5,6.1782E4,6.1831E4,6.1797E4,6.1795E4,6.1789E4,6.174E4],"tree_param":{"num_deleted":"0","num_feature":"2","num_nodes":"23","size_leaf_vector":"1"}},{"base_weights":[-6.051512E-5,1.2752217E-2,-1.2583382E-2,-4.282552E-2,6.603849E-2,2.8648749E-2,-6.664917E-2,2.7241057E-3,8.357997E-2,1.180017E-3,4.090322E-3,-7.163805E-2,-5.666179E-2,8.506045E-3,6.925107E-3,-6.6284776E-2,-7.698537E-2,-4.224594E-3,-6.197831E-3,-6.8359915E-3,-5.3551514E-3,-7.636475E-3,-6.5239086E-3],"categories":[],"categories_nodes":[],"categories_segments":[],"categories_sizes":[],"default_left":[0,0,0,0,0,0,0,0,0,0,0,0,0,0,0,0,0,0,0,0,0,0,0],"id":6,"left_children":[1,-1,3,5,7,9,11,-1,13,-1,-1,15,17,-1,-1,19,21,-1,-1,-1,-1,-1,-1],"loss_changes":[1.2961112E3,0E0,1.6272063E3,8.416249E2,1.21401245E2,3.0906563E1,1.841394E1,0E0,9.390259E0,0E0,0E0,7.012085E0,1.4165283E1,0E0,0E0,7.9502563E0,4.4539185E0,0E0,0E0,0E0,0E0,0E0,0E0],"parents":[2147483647,0,0,2,2,3,3,4,4,5,5,6,6,8,8,11,11,12,12,15,15,16,16],"right_children":[2,-1,4,6,8,10,12,-1,14,-1,-1,16,18,-1,-1,20,22,-1,-1,-1,-1,-1,-1],"split_conditions":[2E0,1.2752217E-2,1E1,4E0,1.1E1,3E0,8E0,2.7241057E-3,1.2E1,1.180017E-3,4.090322E-3,6E0,9E0,8.506045E-3,6.925107E-3,5E0,7E0,-4.224594E-3,-6.197831E-3,-6.8359915E-3,-5.3551514E-3,-7.636475E-3,-6.5239086E-3],"split_indices":[0,0,0,0,0,0,0,0,0,0,0,0,0,0,0,0,0,0,0,0,0,0,0],"split_type":[0,0,0,0,0,0,0,0,0,0,0,0,0,0,0,0,0,0,0,0,0,0,0],"sum_hessian":[7.46144E5,6.1778E4,6.84366E5,4.94255E5,1.90111E5,1.23555E5,3.707E5,6.181E4,1.28301E5,6.1807E4,6.1748E4,2.47182E5,1.23518E5,6.1786E4,6.6515E4,1.23566E5,1.23616E5,6.1785E4,6.1733E4,6.1803E4,6.1763E4,6.1779E4,6.1837E4],"tree_param":{"num_deleted":"0","num_feature":"2","num_nodes":"23","size_leaf_vector":"1"}},{"base_weights":[1.7502543E-5,-2.252908E-2,3.3615306E-1,-7.569961E-2,-1.0571996E-2,5.9077066E-1,1.8346792E-1,3.62311E-2,-1.4641717E-1,4.6508446E-1,-2.0408964E-2,4.1042194E-1,9.5038944E-1,7.857327E-3,5.8335066E-1,-1.6297385E-1,7.918911E-2,-3.3480018E-1,-6.723604E-2,7.6676235E-2,3.3989868E-1,1.6216351E-1,-2.3332218E-2,5.4490402E-2,3.4960544E-1,6.936942E-2,1.0539891E-1,-2.7612919E-2,2.0116115E-2,9.263233E-1,-6.178988E-3,-2.4375483E-2,-1.1200197E-1,4.5976356E-2,1.1221344E-1,-3.8806525E-1,-3.0343205E-1,5.324899E-2,-1.373156E-1,9.516597E-2,7.494704E-2,1.1600082E-2,2.1521384E-2,-1.805401E-1,-1.6391663E-2,1.3207651E-2,4.5260978E-1,1.0044942E-1,-8.955184E-2,7.693621E-2,9.3412496E-2,-8.3582215E-3,-1.2229116E-2,8.506063E-2,-5.4267976E-2,1.7483191E-1,2.8705496E-2,-3.26567E-2,-4.0483662E-1,-3.2243475E-1,-2.0922551E-2,4.085211E-2,8.392496E-2,-8.630337E-2,-2.0821634E-1,9.820344E-3,7.6121823E-3,-9.0860166E-2,-2.7139986E-1,3.4185395E-2,-3.6267955E-2,4.4323392E-2,3.89157E-2,7.7507016E-3,1.0630497E-2,-2.3372073E-2,-3.4511924E-2,3.0587E-2,2.7842592E-2,-8.548864E-4,-9.336442E-3,2.2928387E-2,1.4993167E-1,-3.609498E-2,1.4554361E-2,-3.876755E-2,-3.575313E-2,-2.6438046E-1,-3.8034195E-1,6.353882E-2,-4.483095E-3,1.4051624E-2,1.3596001E-3,-1.4706066E-1,6.990047E-2,-3.4077443E-2,-1.6775654E-1,-2.2562064E-1,2.871955E-2,-3.633489E-2,-2.3204179E-1,-6.3725244E-3,2.509154E-1,-1.7149842E-1,-1.3292371E-2,-7.722835E-2,4.684519E-3,5.099435E-3,-4.025477E-3,1.0149278E-2,2.108027E-2,-4.989876E-3,-1.6411294E-3,-3.011019E-2,-1.852663E-2,-3.147566E-2,-3.8468838E-2,2.5236735E-3,9.236763E-3,-8.702051E-3,-1.6746439E-2,9.49072E-3,3.5140724E-3,-6.7724646E-3,-2.4090856E-2,-3.7754852E-2,-1.2220486E-2,-1.4901687E-2,-3.425005E-2,-3.3587716E-3,6.5964554E-3,2.997746E-2,2.387107E-3,-1.885916E-2,-1.0399611E-2,9.544089E-3,-3.306476E-3,-8.089515E-3,-6.1013377E-3],"categories":[],"categories_nodes":[],"categories_segments":[],"categories_sizes":[],"default_left":[0,0,0,0,0,0,0,0,0,0,0,0,0,0,0,0,0,0,0,0,0,0,0,0,0,0,0,0,0,0,0,0,0,0,0,0,0,0,0,0,0,0,0,0,0,0,0,0,0,0,0,0,0,0,0,0,0,0,0,0,0,0,0,0,0,0,0,0,0,0,0,0,0,0,0,0,0,0,0,0,0,0,0,0,0,0,0,0,0,0,0,0,0,0,0,0,0,0,0,0,0,0,0,0,0,0,0,0,0,0,0,0,0,0,0,0,0,0,0,0,0,0,0,0,0,0,0,0,0,0,0,0,0,0,0,0,0,0,0],"id":7,"left_children":[1,3,5,7,9,11,13,15,17,19,21,23,25,27,29,31,33,35,37,-1,39,41,43,-1,45,-1,-1,47,-1,49,-1,-1,51,53,55,57,59,61,63,65,-1,-1,-1,67,69,-1,71,73,75,-1,-1,-1,-1,77,79,81,83,-1,85,87,-1,89,91,93,95,-1,-1,97,99,101,103,-1,-1,-1,-1,-1,105,107,-1,-1,-1,-1,109,111,-1,-1,-1,113,115,117,-1,-1,-1,119,121,-1,123,125,-1,-1,127,129,131,133,135,137,-1,-1,-1,-1,-1,-1,-1,-1,-1,-1,-1,-1,-1,-1,-1,-1,-1,-1,-1,-1,-1,-1,-1,-1,-1,-1,-1,-1,-1,-1,-1,-1,-1],"loss_changes":[5.652798E3,4.4434705E2,1.8223457E3,1.01577563E3,2.6699216E3,1.1390103E3,2.058119E3,4.2512115E2,1.1728499E3,5.328638E2,2.983354E2,1.290907E2,2.2380908E2,1.5243352E2,1.995874E3,4.5664505E1,4.475818E1,3.851367E1,4.6756427E2,0E0,1.00312866E3,2.2632614E1,6.0033716E2,0E0,1.8597632E2,0E0,0E0,1.3829361E2,0E0,4.566162E1,0E0,0E0,2.5022507E0,7.988254E1,1.07038574E2,4.35376E0,2.0866333E1,7.688114E0,1.2649109E2,7.3485947E-1,0E0,0E0,0E0,1.8939868E2,5.298082E2,0E0,4.543701E0,1.3006935E0,1.06341255E2,0E0,0E0,0E0,0E0,1.7380182E2,1.209799E1,2.1512817E1,7.378294E1,0E0,1.0830078E0,3.904541E1,0E0,2.9505728E1,2.777924E1,1.9331978E2,9.591431E1,0E0,0E0,6.3626196E2,5.5916138E1,1.306998E3,1.175437E3,0E0,0E0,0E0,0E0,0E0,3.2172653E1,2.170015E1,0E0,0E0,0E0,0E0,2.7381042E1,1.9088678E0,0E0,0E0,0E0,2.2957367E1,8.056824E0,1.5371815E1,0E0,0E0,0E0,2.6809235E1,5.953884E0,0E0,1.03801025E2,1.5027304E2,0E0,0E0,8.5908966E1,2.9486118E2,3.9549158E2,1.07576294E2,8.5786414E2,6.179123E-1,0E0,0E0,0E0,0E0,0E0,0E0,0E0,0E0,0E0,0E0,0E0,0E0,0E0,0E0,0E0,0E0,0E0,0E0,0E0,0E0,0E0,0E0,0E0,0E0,0E0,0E0,0E0,0E0,0E0,0E0,0E0,0E0,0E0],"parents":[2147483647,0,0,1,1,2,2,3,3,4,4,5,5,6,6,7,7,8,8,9,9,10,10,11,11,12,12,13,13,14,14,15,15,16,16,17,17,18,18,20,20,21,21,22,22,24,24,27,27,29,29,32,32,33,33,34,34,35,35,36,36,37,37,38,38,39,39,43,43,44,44,46,46,47,47,48,48,53,53,54,54,55,55,56,56,58,58,59,59,61,61,62,62,63,63,64,64,67,67,68,68,69,69,70,70,76,76,77,77,82,82,83,83,87,87,88,88,89,89,93,93,94,94,96,96,97,97,100,100,101,101,102,102,103,103,104,104,105,105],"right_children":[2,4,6,8,10,12,14,16,18,20,22,24,26,28,30,32,34,36,38,-1,40,42,44,-1,46,-1,-1,48,-1,50,-1,-1,52,54,56,58,60,62,64,66,-1,-1,-1,68,70,-1,72,74,76,-1,-1,-1,-1,78,80,82,84,-1,86,88,-1,90,92,94,96,-1,-1,98,100,102,104,-1,-1,-1,-1,-1,106,108,-1,-1,-1,-1,110,112,-1,-1,-1,114,116,118,-1,-1,-1,120,122,-1,124,126,-1,-1,128,130,132,134,136,138,-1,-1,-1,-1,-1,-1,-1,-1,-1,-1,-1,-1,-1,-1,-1,-1,-1,-1,-1,-1,-1,-1,-1,-1,-1,-1,-1,-1,-1,-1,-1,-1,-1],"split_conditions":[4.531E3,8.31E2,4.645E3,3.21E2,9.06E2,4.607E3,4.777E3,5.6E1,4.72E2,8.5E2,9.63E2,4.55E3,4.626E3,4.758E3,4.815E3,1.8E1,1.88E2,3.77E2,6.04E2,7.6676235E-2,8.87E2,9.44E2,1.114E3,5.4490402E-2,4.569E3,6.936942E-2,1.0539891E-1,4.682E3,2.0116115E-2,4.796E3,-6.178988E-3,-2.4375483E-2,3.7E1,1.51E2,2.64E2,3.4E2,4.53E2,5.66E2,7.36E2,8.69E2,7.494704E-2,1.1600082E-2,2.1521384E-2,1.039E3,2.078E3,1.3207651E-2,4.588E3,4.663E3,4.701E3,7.693621E-2,9.3412496E-2,-8.3582215E-3,-1.2229116E-2,1.32E2,1.7E2,2.07E2,3.02E2,-3.26567E-2,3.58E2,4.15E2,-2.0922551E-2,5.47E2,5.85E2,6.99E2,7.55E2,9.820344E-3,7.6121823E-3,1.02E3,1.057E3,1.926E3,2.434E3,4.4323392E-2,3.89157E-2,7.7507016E-3,1.0630497E-2,-2.3372073E-2,4.739E3,1.13E2,2.7842592E-2,-8.548864E-4,-9.336442E-3,2.2928387E-2,2.45E2,2.83E2,1.4554361E-2,-3.876755E-2,-3.575313E-2,3.96E2,4.34E2,5.1E2,-4.483095E-3,1.4051624E-2,1.3596001E-3,6.42E2,7.17E2,-3.4077443E-2,7.93E2,9.82E2,2.871955E-2,-3.633489E-2,1.095E3,1.7E3,2.04E3,2.304E3,2.774E3,4.72E3,4.684519E-3,5.099435E-3,-4.025477E-3,1.0149278E-2,2.108027E-2,-4.989876E-3,-1.6411294E-3,-3.011019E-2,-1.852663E-2,-3.147566E-2,-3.8468838E-2,2.5236735E-3,9.236763E-3,-8.702051E-3,-1.6746439E-2,9.49072E-3,3.5140724E-3,-6.7724646E-3,-2.4090856E-2,-3.7754852E-2,-1.2220486E-2,-1.4901687E-2,-3.425005E-2,-3.3587716E-3,6.5964554E-3,2.997746E-2,2.387107E-3,-1.885916E-2,-1.0399611E-2,9.544089E-3,-3.306476E-3,-8.089515E-3,-6.1013377E-3],"split_indices":[1,1,1,1,1,1,1,1,1,1,1,1,1,1,1,1,1,1,1,0,1,1,1,0,1,0,0,1,0,1,0,0,1,1,1,1,1,1,1,1,0,0,0,1,1,0,1,1,1,0,0,0,0,1,1,1,1,0,1,1,0,1,1,1,1,0,0,1,1,1,1,0,0,0,0,0,1,1,0,0,0,0,1,1,0,0,0,1,1,1,0,0,0,1,1,0,1,1,0,0,1,1,1,1,1,1,0,0,0,0,0,0,0,0,0,0,0,0,0,0,0,0,0,0,0,0,0,0,0,0,0,0,0,0,0,0,0,0,0],"split_type":[0,0,0,0,0,0,0,0,0,0,0,0,0,0,0,0,0,0,0,0,0,0,0,0,0,0,0,0,0,0,0,0,0,0,0,0,0,0,0,0,0,0,0,0,0,0,0,0,0,0,0,0,0,0,0,0,0,0,0,0,0,0,0,0,0,0,0,0,0,0,0,0,0,0,0,0,0,0,0,0,0,0,0,0,0,0,0,0,0,0,0,0,0,0,0,0,0,0,0,0,0,0,0,0,0,0,0,0,0,0,0,0,0,0,0,0,0,0,0,0,0,0,0,0,0,0,0,0,0,0,0,0,0,0,0,0,0,0,0],"sum_hessian":[7.4586E5,6.98975E5,4.6885E4,1.28321E5,5.70654E5,1.7574E4,2.9311E4,4.9681E4,7.864E4,1.1561E4,5.59093E5,1.1706E4,5.868E3,2.0368E4,8.943E3,8.811E3,4.087E4,2.327E4,5.537E4,2.929E3,8.632E3,8.808E3,5.50285E5,2.928E3,8.778E3,2.933E3,2.935E3,1.7434E4,2.934E3,5.856E3,3.087E3,2.931E3,5.88E3,2.0384E4,2.0486E4,8.617E3,1.4653E4,2.036E4,3.501E4,5.698E3,2.934E3,5.871E3,2.937E3,2.3264E4,5.27021E5,2.928E3,5.85E3,5.681E3,1.1753E4,2.927E3,2.929E3,2.941E3,2.939E3,1.4669E4,5.715E3,1.1704E4,8.782E3,2.918E3,5.699E3,1.1714E4,2.939E3,1.4511E4,5.849E3,2.0365E4,1.4645E4,2.922E3,2.776E3,1.1711E4,1.1553E4,1.48677E5,3.78344E5,2.92E3,2.93E3,2.762E3,2.919E3,2.943E3,8.81E3,1.1735E4,2.934E3,2.933E3,2.782E3,2.927E3,8.777E3,5.852E3,2.93E3,2.776E3,2.923E3,5.855E3,5.859E3,1.1583E4,2.928E3,2.927E3,2.922E3,1.4664E4,5.701E3,2.919E3,1.1726E4,8.778E3,2.933E3,2.785E3,8.768E3,1.25239E5,2.3438E4,5.4942E4,3.23402E5,5.877E3,2.933E3,8.799E3,2.936E3,5.859E3,2.918E3,2.921E3,2.931E3,2.921E3,2.934E3,2.932E3,2.927E3,5.861E3,5.722E3,5.878E3,8.786E3,2.773E3,2.928E3,5.868E3,5.858E3,2.93E3,5.848E3,5.853E3,2.915E3,9.0362E4,3.4877E4,1.7574E4,5.864E3,3.489E4,2.0052E4,5.2443E4,2.70959E5,2.938E3,2.939E3],"tree_param":{"num_deleted":"0","num_feature":"2","num_nodes":"139","size_leaf_vector":"1"}},{"base_weights":[3.6798164E-4,1.1507774E-2,-1.0891559E-2,-3.8506426E-2,6.0920056E-2,2.6817605E-2,-6.0265154E-2,2.6690988E-3,7.6258E-2,1.2315599E-3,3.7005327E-3,-6.4838134E-2,-5.111971E-2,7.822217E-3,6.2615713E-3,-5.969341E-2,-6.9976114E-2,-3.6980128E-3,-5.7028076E-3,-6.1654164E-3,-4.8135873E-3,-7.0322156E-3,-5.839076E-3],"categories":[],"categories_nodes":[],"categories_segments":[],"categories_sizes":[],"default_left":[0,0,0,0,0,0,0,0,0,0,0,0,0,0,0,0,0,0,0,0,0,0,0],"id":8,"left_children":[1,-1,3,5,7,9,11,-1,13,-1,-1,15,17,-1,-1,19,21,-1,-1,-1,-1,-1,-1],"loss_changes":[1.0478326E3,0E0,1.3567134E3,7.0236926E2,9.2919556E1,2.2221619E1,1.5451538E1,0E0,9.156006E0,0E0,0E0,6.473877E0,1.4638031E1,0E0,0E0,6.6183167E0,5.1375732E0,0E0,0E0,0E0,0E0,0E0,0E0],"parents":[2147483647,0,0,2,2,3,3,4,4,5,5,6,6,8,8,11,11,12,12,15,15,16,16],"right_children":[2,-1,4,6,8,10,12,-1,14,-1,-1,16,18,-1,-1,20,22,-1,-1,-1,-1,-1,-1],"split_conditions":[2E0,1.1507774E-2,1E1,4E0,1.1E1,3E0,8E0,2.6690988E-3,1.2E1,1.2315599E-3,3.7005327E-3,6E0,9E0,7.822217E-3,6.2615713E-3,5E0,7E0,-3.6980128E-3,-5.7028076E-3,-6.1654164E-3,-4.8135873E-3,-7.0322156E-3,-5.839076E-3],"split_indices":[0,0,0,0,0,0,0,0,0,0,0,0,0,0,0,0,0,0,0,0,0,0,0],"split_type":[0,0,0,0,0,0,0,0,0,0,0,0,0,0,0,0,0,0,0,0,0,0,0],"sum_hessian":[7.459E5,6.1748E4,6.84152E5,4.94139E5,1.90013E5,1.23462E5,3.70677E5,6.1708E4,1.28305E5,6.173E4,6.1732E4,2.4708E5,1.23597E5,6.1781E4,6.6524E4,1.23504E5,1.23576E5,6.1756E4,6.1841E4,6.1762E4,6.1742E4,6.1752E4,6.1824E4],"tree_param":{"num_deleted":"0","num_feature":"2","num_nodes":"23","size_leaf_vector":"1"}},{"base_weights":[-9.203906E-5,-2.0525366E-2,3.0459544E-1,-6.902025E-2,-9.62432E-3,5.34802E-1,1.664405E-1,3.125733E-2,-1.3233392E-1,4.2264467E-1,-1.857214E-2,3.7155965E-1,8.599987E-1,5.6193923E-3,5.334168E-1,-1.1939114E-1,7.785839E-2,-3.0261937E-1,-6.0765956E-2,6.981278E-2,3.084268E-1,-2.7167967E-2,4.462572E-2,4.948277E-2,3.1599018E-1,6.205928E-2,9.618399E-2,-2.5493158E-2,1.7443648E-2,8.464003E-1,-5.533107E-3,-2.1946505E-2,-7.9537496E-2,9.4313584E-2,2.3191756E-2,-3.5343942E-1,-2.7257198E-1,4.8861254E-2,-1.2455831E-1,8.4680185E-2,6.838907E-2,-1.7953906E-2,-2.7586928E-1,2.2860704E-1,-2.014248E-2,1.1830212E-2,4.1008547E-1,9.3800776E-2,-8.34741E-2,6.973334E-2,8.589954E-2,-9.959861E-2,-3.6111998E-3,5.229584E-2,1.567974E-1,-3.5728775E-2,1.29452655E-2,-2.967381E-2,-3.691431E-1,-2.902638E-1,-1.8548239E-2,3.7240256E-2,7.7600166E-2,-7.910188E-2,-1.8750186E-1,8.912854E-3,6.581599E-3,-2.5736514E-2,1.3289666E-1,-2.796804E-1,-2.3591593E-2,2.958109E-1,1.6251549E-1,1.0535382E-2,-6.409096E-2,3.9577913E-2,3.5830922E-2,6.6931974E-3,1.0439596E-2,-2.095663E-2,-3.5101634E-2,-7.4186907E-3,-1.0878407E-2,1.0326114E-1,-5.2429892E-2,2.0962697E-2,1.3304186E-1,-4.8101223E-3,-1.7436002E-3,-3.5051923E-2,-3.2881893E-2,-2.4002317E-1,-3.4025475E-1,5.9229977E-2,-4.569193E-3,1.20592285E-2,2.182735E-3,-1.3418628E-1,6.261134E-2,-3.0817272E-2,-1.5065806E-1,9.787392E-3,-5.0046973E-2,4.199793E-2,8.6268984E-2,-2.7130112E-1,-2.8771587E-2,2.3185235E-1,3.86266E-2,6.881996E-2,3.2080214E-2,-4.687797E-2,4.8972346E-2,-5.327434E-2,-1.1800324E-2,-7.132587E-2,3.4147059E-3,4.364468E-3,2.4864158E-2,-9.556074E-4,-8.90209E-3,5.7868455E-3,1.5455346E-2,-2.7227545E-2,-1.6910838E-2,-2.806437E-2,-3.4493722E-2,2.5297757E-3,8.429901E-3,-5.3270054E-3,-1.408542E-2,8.189403E-3,3.4392094E-3,-6.0660043E-3,-2.1641647E-2,-4.3518976E-3,1.1484321E-2,-1.8246138E-2,-2.7294087E-3,1.8806754E-2,3.5490284E-3,-2.575585E-2,-2.2520538E-2,2.0367287E-2,2.2318635E-2,3.750932E-3,8.884297E-3,1.789465E-3,-1.0427681E-2,1.1947796E-2,8.7303296E-4,-6.4197313E-3,2.606191E-3,-7.680478E-3,-5.4197796E-3],"categories":[],"categories_nodes":[],"categories_segments":[],"categories_sizes":[],"default_left":[0,0,0,0,0,0,0,0,0,0,0,0,0,0,0,0,0,0,0,0,0,0,0,0,0,0,0,0,0,0,0,0,0,0,0,0,0,0,0,0,0,0,0,0,0,0,0,0,0,0,0,0,0,0,0,0,0,0,0,0,0,0,0,0,0,0,0,0,0,0,0,0,0,0,0,0,0,0,0,0,0,0,0,0,0,0,0,0,0,0,0,0,0,0,0,0,0,0,0,0,0,0,0,0,0,0,0,0,0,0,0,0,0,0,0,0,0,0,0,0,0,0,0,0,0,0,0,0,0,0,0,0,0,0,0,0,0,0,0,0,0,0,0,0,0,0,0,0,0,0,0,0,0,0,0],"id":9,"left_children":[1,3,5,7,9,11,13,15,17,19,21,23,25,27,29,31,33,35,37,-1,39,41,43,-1,45,-1,-1,47,-1,49,-1,-1,51,53,55,57,59,61,63,65,-1,67,69,71,73,-1,75,77,79,-1,-1,81,-1,83,85,87,-1,-1,89,91,-1,93,95,97,99,-1,-1,101,103,105,-1,107,109,111,113,-1,-1,-1,-1,-1,115,-1,-1,117,119,-1,121,-1,-1,-1,-1,123,125,127,-1,-1,-1,129,131,-1,133,135,137,-1,139,141,-1,143,-1,145,-1,147,149,151,-1,153,-1,-1,-1,-1,-1,-1,-1,-1,-1,-1,-1,-1,-1,-1,-1,-1,-1,-1,-1,-1,-1,-1,-1,-1,-1,-1,-1,-1,-1,-1,-1,-1,-1,-1,-1,-1,-1,-1,-1],"loss_changes":[4.6433237E3,3.694722E2,1.4904258E3,8.1445984E2,2.2071973E3,9.3245166E2,1.728728E3,3.4850568E2,9.5813E2,4.4411206E2,3.037289E2,1.0781958E2,2.0098096E2,1.1671936E2,1.6585762E3,5.5579483E1,3.4057938E1,3.520215E1,3.8723572E2,0E0,8.4105145E2,1.1277361E3,7.977291E2,0E0,1.5451984E2,0E0,0E0,1.2051615E2,0E0,4.3975586E1,0E0,0E0,7.04261E0,7.640808E1,6.086393E1,3.8079834E0,1.8103882E1,6.751049E0,1.0002728E2,8.4044266E-1,0E0,5.5714575E2,1.0244141E0,7.719592E1,6.677145E1,0E0,1.970581E0,2.276966E0,8.179682E1,0E0,0E0,1.9837036E0,0E0,9.3042854E1,1.961914E1,1.5942979E0,0E0,0E0,3.9483643E-1,2.9092407E1,0E0,2.7745277E1,1.6806416E1,1.5873264E2,7.9549805E1,0E0,0E0,3.8977966E2,3.512048E2,3.7733154E0,0E0,6.827612E1,1.5328789E2,6.433186E1,1.4059624E1,0E0,0E0,0E0,0E0,0E0,2.3008926E1,0E0,0E0,1.09195244E2,1.0589938E1,0E0,2.1462234E1,0E0,0E0,0E0,0E0,1.81427E1,6.798523E0,1.186837E1,0E0,0E0,0E0,2.1085144E1,3.7364006E0,0E0,8.40849E1,1.2051102E3,8.096076E2,0E0,1.1461481E2,2.444458E0,0E0,4.116516E-1,0E0,4.497896E0,0E0,5.1593155E1,5.575069E1,2.353033E1,0E0,8.214531E-1,0E0,0E0,0E0,0E0,0E0,0E0,0E0,0E0,0E0,0E0,0E0,0E0,0E0,0E0,0E0,0E0,0E0,0E0,0E0,0E0,0E0,0E0,0E0,0E0,0E0,0E0,0E0,0E0,0E0,0E0,0E0,0E0,0E0,0E0,0E0,0E0,0E0,0E0,0E0],"parents":[2147483647,0,0,1,1,2,2,3,3,4,4,5,5,6,6,7,7,8,8,9,9,10,10,11,11,12,12,13,13,14,14,15,15,16,16,17,17,18,18,20,20,21,21,22,22,24,24,27,27,29,29,32,32,33,33,34,34,35,35,36,36,37,37,38,38,39,39,41,41,42,42,43,43,44,44,46,46,47,47,48,48,51,51,53,53,54,54,55,55,58,58,59,59,61,61,62,62,63,63,64,64,67,67,68,68,69,69,71,71,72,72,73,73,74,74,80,80,83,83,84,84,86,86,91,91,92,92,93,93,97,97,98,98,100,100,101,101,102,102,104,104,105,105,107,107,109,109,111,111,112,112,113,113,115,115],"right_children":[2,4,6,8,10,12,14,16,18,20,22,24,26,28,30,32,34,36,38,-1,40,42,44,-1,46,-1,-1,48,-1,50,-1,-1,52,54,56,58,60,62,64,66,-1,68,70,72,74,-1,76,78,80,-1,-1,82,-1,84,86,88,-1,-1,90,92,-1,94,96,98,100,-1,-1,102,104,106,-1,108,110,112,114,-1,-1,-1,-1,-1,116,-1,-1,118,120,-1,122,-1,-1,-1,-1,124,126,128,-1,-1,-1,130,132,-1,134,136,138,-1,140,142,-1,144,-1,146,-1,148,150,152,-1,154,-1,-1,-1,-1,-1,-1,-1,-1,-1,-1,-1,-1,-1,-1,-1,-1,-1,-1,-1,-1,-1,-1,-1,-1,-1,-1,-1,-1,-1,-1,-1,-1,-1,-1,-1,-1,-1,-1,-1],"split_conditions":[4.531E3,8.31E2,4.645E3,3.21E2,9.06E2,4.607E3,4.777E3,7.5E1,4.72E2,8.5E2,4.097E3,4.55E3,4.626E3,4.758E3,4.815E3,1.8E1,2.64E2,3.77E2,6.04E2,6.981278E-2,8.87E2,3.983E3,4.21E3,4.948277E-2,4.569E3,6.205928E-2,9.618399E-2,4.682E3,1.7443648E-2,4.796E3,-5.533107E-3,-2.1946505E-2,5.6E1,1.88E2,3.02E2,3.4E2,4.53E2,5.66E2,7.36E2,8.69E2,6.838907E-2,3.832E3,4.078E3,4.153E3,4.399E3,1.1830212E-2,4.588E3,4.663E3,4.701E3,6.973334E-2,8.589954E-2,3.7E1,-3.6111998E-3,1.51E2,2.07E2,2.83E2,1.29452655E-2,-2.967381E-2,3.58E2,4.15E2,-1.8548239E-2,5.47E2,5.85E2,6.99E2,7.55E2,8.912854E-3,6.581599E-3,2.094E3,3.851E3,4.059E3,-2.3591593E-2,4.134E3,4.191E3,4.286E3,4.512E3,3.9577913E-2,3.5830922E-2,6.6931974E-3,1.0439596E-2,-2.095663E-2,4.739E3,-7.4186907E-3,-1.0878407E-2,1.32E2,1.7E2,2.0962697E-2,2.26E2,-4.8101223E-3,-1.7436002E-3,-3.5051923E-2,-3.2881893E-2,3.96E2,4.34E2,5.1E2,-4.569193E-3,1.20592285E-2,2.182735E-3,6.23E2,7.17E2,-3.0817272E-2,7.93E2,1.7E3,2.304E3,4.199793E-2,3.889E3,4.04E3,-2.8771587E-2,4.116E3,3.86266E-2,4.172E3,3.2080214E-2,4.248E3,4.323E3,4.493E3,-1.1800324E-2,4.72E3,3.4147059E-3,4.364468E-3,2.4864158E-2,-9.556074E-4,-8.90209E-3,5.7868455E-3,1.5455346E-2,-2.7227545E-2,-1.6910838E-2,-2.806437E-2,-3.4493722E-2,2.5297757E-3,8.429901E-3,-5.3270054E-3,-1.408542E-2,8.189403E-3,3.4392094E-3,-6.0660043E-3,-2.1641647E-2,-4.3518976E-3,1.1484321E-2,-1.8246138E-2,-2.7294087E-3,1.8806754E-2,3.5490284E-3,-2.575585E-2,-2.2520538E-2,2.0367287E-2,2.2318635E-2,3.750932E-3,8.884297E-3,1.789465E-3,-1.0427681E-2,1.1947796E-2,8.7303296E-4,-6.4197313E-3,2.606191E-3,-7.680478E-3,-5.4197796E-3],"split_indices":[1,1,1,1,1,1,1,1,1,1,1,1,1,1,1,1,1,1,1,0,1,1,1,0,1,0,0,1,0,1,0,0,1,1,1,1,1,1,1,1,0,1,1,1,1,0,1,1,1,0,0,1,0,1,1,1,0,0,1,1,0,1,1,1,1,0,0,1,1,1,0,1,1,1,1,0,0,0,0,0,1,0,0,1,1,0,1,0,0,0,0,1,1,1,0,0,0,1,1,0,1,1,1,0,1,1,0,1,0,1,0,1,1,1,0,1,0,0,0,0,0,0,0,0,0,0,0,0,0,0,0,0,0,0,0,0,0,0,0,0,0,0,0,0,0,0,0,0,0,0,0,0,0,0,0],"split_type":[0,0,0,0,0,0,0,0,0,0,0,0,0,0,0,0,0,0,0,0,0,0,0,0,0,0,0,0,0,0,0,0,0,0,0,0,0,0,0,0,0,0,0,0,0,0,0,0,0,0,0,0,0,0,0,0,0,0,0,0,0,0,0,0,0,0,0,0,0,0,0,0,0,0,0,0,0,0,0,0,0,0,0,0,0,0,0,0,0,0,0,0,0,0,0,0,0,0,0,0,0,0,0,0,0,0,0,0,0,0,0,0,0,0,0,0,0,0,0,0,0,0,0,0,0,0,0,0,0,0,0,0,0,0,0,0,0,0,0,0,0,0,0,0,0,0,0,0,0,0,0,0,0,0,0],"sum_hessian":[7.4584E5,6.98967E5,4.6873E4,1.28275E5,5.70692E5,1.7578E4,2.9295E4,4.9643E4,7.8632E4,1.1572E4,5.5912E5,1.1705E4,5.873E3,2.037E4,8.925E3,1.1726E4,3.7917E4,2.3266E4,5.5366E4,2.931E3,8.641E3,4.92183E5,6.6937E4,2.926E3,8.779E3,2.944E3,2.929E3,1.7423E4,2.947E3,5.844E3,3.081E3,2.934E3,8.792E3,2.9138E4,8.779E3,8.637E3,1.4629E4,2.0364E4,3.5002E4,5.708E3,2.933E3,4.74602E5,1.7581E4,1.743E4,4.9507E4,2.937E3,5.842E3,5.696E3,1.1727E4,2.918E3,2.926E3,5.861E3,2.931E3,1.7427E4,1.1711E4,5.846E3,2.933E3,2.931E3,5.706E3,1.1701E4,2.928E3,1.4512E4,5.852E3,2.0329E4,1.4673E4,2.935E3,2.773E3,4.51321E5,2.3281E4,1.4663E4,2.918E3,8.638E3,8.792E3,2.915E4,2.0357E4,2.921E3,2.921E3,2.768E3,2.928E3,2.94E3,8.787E3,2.924E3,2.937E3,1.1725E4,5.702E3,2.926E3,8.785E3,2.927E3,2.919E3,2.78E3,2.926E3,5.842E3,5.859E3,1.1586E4,2.926E3,2.931E3,2.921E3,1.4641E4,5.688E3,2.928E3,1.1745E4,1.83363E5,2.67958E5,2.929E3,2.0352E4,1.172E4,2.943E3,5.705E3,2.933E3,5.852E3,2.94E3,1.1685E4,1.7465E4,1.7429E4,2.928E3,5.856E3,2.931E3,8.792E3,2.933E3,2.933E3,2.769E3,2.93E3,5.855E3,2.919E3,2.923E3,2.926E3,2.933E3,5.864E3,5.722E3,2.921E3,1.172E4,2.768E3,2.92E3,5.874E3,5.871E3,1.22549E5,6.0814E4,3.2348E4,2.3561E5,5.846E3,1.4506E4,8.789E3,2.931E3,2.937E3,2.768E3,2.921E3,2.931E3,5.847E3,5.838E3,5.722E3,1.1743E4,1.4498E4,2.931E3,2.934E3,2.922E3],"tree_param":{"num_deleted":"0","num_feature":"2","num_nodes":"155","size_leaf_vector":"1"}},{"base_weights":[-1.895753E-4,1.0277417E-2,-1.0290313E-2,-3.520369E-2,5.4453067E-2,2.4512451E-2,-5.5110272E-2,2.3436826E-3,6.839409E-2,1.1877632E-3,3.3207803E-3,-5.921698E-2,-4.6891816E-2,6.9473344E-3,5.6791683E-3,-5.4978758E-2,-6.345014E-2,-3.4090658E-3,-5.2156993E-3,-5.5940063E-3,-4.5177285E-3,-6.3378396E-3,-5.3329733E-3],"categories":[],"categories_nodes":[],"categories_segments":[],"categories_sizes":[],"default_left":[0,0,0,0,0,0,0,0,0,0,0,0,0,0,0,0,0,0,0,0,0,0,0],"id":10,"left_children":[1,-1,3,5,7,9,11,-1,13,-1,-1,15,17,-1,-1,19,21,-1,-1,-1,-1,-1,-1],"loss_changes":[8.4338934E2,0E0,1.1036378E3,5.873766E2,7.674487E1,1.6590393E1,1.2460815E1,0E0,6.0319214E0,0E0,0E0,4.380432E0,1.1874512E1,0E0,0E0,4.1805725E0,3.6314087E0,0E0,0E0,0E0,0E0,0E0,0E0],"parents":[2147483647,0,0,2,2,3,3,4,4,5,5,6,6,8,8,11,11,12,12,15,15,16,16],"right_children":[2,-1,4,6,8,10,12,-1,14,-1,-1,16,18,-1,-1,20,22,-1,-1,-1,-1,-1,-1],"split_conditions":[2E0,1.0277417E-2,1E1,4E0,1.1E1,3E0,8E0,2.3436826E-3,1.2E1,1.1877632E-3,3.3207803E-3,6E0,9E0,6.9473344E-3,5.6791683E-3,5E0,7E0,-3.4090658E-3,-5.2156993E-3,-5.5940063E-3,-4.5177285E-3,-6.3378396E-3,-5.3329733E-3],"split_indices":[0,0,0,0,0,0,0,0,0,0,0,0,0,0,0,0,0,0,0,0,0,0,0],"split_type":[0,0,0,0,0,0,0,0,0,0,0,0,0,0,0,0,0,0,0,0,0,0,0],"sum_hessian":[7.45965E5,6.1737E4,6.84228E5,4.94103E5,1.90125E5,1.23526E5,3.70577E5,6.1779E4,1.28346E5,6.1775E4,6.1751E4,2.47065E5,1.23512E5,6.1801E4,6.6545E4,1.23513E5,1.23552E5,6.1764E4,6.1748E4,6.1773E4,6.174E4,6.174E4,6.1812E4],"tree_param":{"num_deleted":"0","num_feature":"2","num_nodes":"23","size_leaf_vector":"1"}},{"base_weights":[3.3789047E-4,-1.8223355E-2,2.7729532E-1,-6.2413156E-2,-8.288134E-3,4.859003E-1,1.5186046E-1,2.9071752E-2,-1.201353E-1,3.868877E-1,-1.6478162E-2,3.9091113E-1,8.820973E-2,6.4948034E-3,4.8320812E-1,-1.0706337E-1,7.118743E-2,-2.7584478E-1,-5.4560978E-2,6.4406306E-2,2.8076625E-1,-2.462171E-2,4.3328434E-2,3.358926E-1,5.6127716E-2,-2.11478E-2,1.5718892E-2,7.680736E-1,-5.408621E-3,-1.9941062E-2,-7.036978E-2,8.6786516E-2,1.9518849E-2,-2.8943172E-1,-1.6676538E-2,4.3923624E-2,-1.1185166E-1,7.225515E-2,6.311472E-2,-1.620276E-2,-2.5195453E-1,2.0715496E-1,-1.4396287E-2,4.446313E-2,2.8680918E-1,8.4229335E-2,-7.257304E-2,6.3576445E-2,7.7677704E-2,-8.85296E-2,-3.1269852E-3,4.937233E-2,1.4243585E-1,-3.3424728E-2,1.1563517E-2,-3.2253936E-1,-2.6502246E-1,3.3329044E-2,7.000857E-2,-7.144736E-2,-1.6806795E-1,7.4501345E-3,5.780662E-3,-2.3230247E-2,1.2004714E-1,-2.5525573E-1,-2.1639792E-2,2.7183896E-1,1.4349517E-1,1.7130895E-2,-4.9856737E-2,1.0815113E-2,3.7145203E-1,6.538502E-3,8.874917E-3,-1.9278271E-2,-2.7179908E-2,-6.867165E-3,-9.399636E-3,9.632062E-2,-4.7162488E-2,1.9404287E-2,1.1952105E-1,-4.543482E-3,-1.5942514E-3,-2.7112495E-2,-3.3667216E-1,-2.1769655E-1,-3.1219915E-1,5.331309E-2,-4.135938E-3,1.1736096E-2,1.1120676E-3,-1.2228953E-1,5.9315484E-2,-2.7845263E-2,-1.3430771E-1,-9.028794E-3,-8.228302E-2,2.6488492E-1,3.2095443E-2,-2.4799846E-1,-2.612048E-2,1.9556068E-2,3.5626877E-2,5.8931675E-2,2.87232E-2,-5.3610075E-2,5.286926E-2,-4.1085627E-2,-1.0167593E-2,3.5456754E-2,3.2843646E-2,-6.4042576E-2,4.299776E-3,4.037973E-3,2.3301251E-2,-7.5270975E-4,-8.113148E-3,7.863309E-3,1.7191261E-2,-3.226626E-2,-2.9704256E-2,-2.4961751E-2,-1.5075172E-2,-2.5601896E-2,-3.179871E-2,2.306173E-3,7.5652897E-3,-4.4608167E-3,-1.29395975E-2,8.027297E-3,3.0133552E-3,-5.2085295E-3,-1.9500038E-2,-2.5593669E-3,3.8142118E-3,-1.889554E-2,-4.714813E-3,3.7952553E-2,1.7553227E-2,-2.3172384E-3,2.3763431E-2,-2.3274781E-2,-2.1385761E-2,3.2742992E-3,7.540927E-3,1.9004558E-3,-1.8640297E-2,7.852942E-3,1.917685E-3,-4.700315E-3,1.6929832E-3,-6.8214997E-3,-4.94262E-3],"categories":[],"categories_nodes":[],"categories_segments":[],"categories_sizes":[],"default_left":[0,0,0,0,0,0,0,0,0,0,0,0,0,0,0,0,0,0,0,0,0,0,0,0,0,0,0,0,0,0,0,0,0,0,0,0,0,0,0,0,0,0,0,0,0,0,0,0,0,0,0,0,0,0,0,0,0,0,0,0,0,0,0,0,0,0,0,0,0,0,0,0,0,0,0,0,0,0,0,0,0,0,0,0,0,0,0,0,0,0,0,0,0,0,0,0,0,0,0,0,0,0,0,0,0,0,0,0,0,0,0,0,0,0,0,0,0,0,0,0,0,0,0,0,0,0,0,0,0,0,0,0,0,0,0,0,0,0,0,0,0,0,0,0,0,0,0,0,0,0,0,0,0,0,0],"id":11,"left_children":[1,3,5,7,9,11,13,15,17,19,21,23,-1,25,27,29,31,33,35,-1,37,39,41,43,-1,45,-1,47,-1,-1,49,51,53,55,-1,57,59,61,-1,63,65,67,69,-1,71,73,75,-1,-1,77,-1,79,81,83,-1,85,87,89,91,93,95,-1,-1,97,99,101,-1,103,105,107,109,-1,111,-1,-1,-1,113,-1,-1,115,117,-1,119,-1,-1,-1,121,123,125,127,-1,-1,-1,129,131,-1,133,135,137,139,141,143,-1,-1,-1,145,-1,147,149,151,-1,-1,-1,153,-1,-1,-1,-1,-1,-1,-1,-1,-1,-1,-1,-1,-1,-1,-1,-1,-1,-1,-1,-1,-1,-1,-1,-1,-1,-1,-1,-1,-1,-1,-1,-1,-1,-1,-1,-1,-1,-1,-1,-1,-1],"loss_changes":[3.8346172E3,3.0688354E2,1.2256196E3,6.776218E2,1.847086E3,7.899512E2,1.4091765E3,2.845777E2,8.031826E2,3.848661E2,2.7232715E2,1.7632373E2,0E0,9.250902E1,1.3778481E3,4.709407E1,3.0510284E1,2.9705933E1,3.1241296E2,0E0,7.317356E2,9.418265E2,6.337638E2,8.445642E1,0E0,9.434814E1,0E0,3.3348877E1,0E0,0E0,5.75301E0,6.0531464E1,4.9519302E1,1.6164917E1,0E0,5.581543E0,7.94025E1,4.0669823E-1,0E0,4.5437305E2,7.2106934E-1,7.169867E1,5.5407017E1,0E0,1.2575818E2,8.448181E-1,7.27031E1,0E0,0E0,1.0305176E0,0E0,7.894934E1,1.8222687E1,1.480309E0,0E0,3.0562134E0,2.5945984E1,2.268087E1,1.9518183E1,1.35474E2,6.633594E1,0E0,0E0,3.7844604E2,2.9635876E2,2.7854614E0,0E0,5.89068E1,1.2552562E2,6.6296745E1,1.235144E1,0E0,7.810669E-1,0E0,0E0,0E0,2.3977629E1,0E0,0E0,9.6334015E1,9.073038E0,0E0,1.9996658E1,0E0,0E0,0E0,7.498779E-1,1.6739532E1,6.3413086E0,9.393711E0,0E0,0E0,0E0,1.9840942E1,4.1813087E0,0E0,7.05385E1,3.454146E2,3.34135E2,9.5871155E1,1.8787418E2,6.759033E-1,0E0,0E0,0E0,3.1061268E0,0E0,9.748712E1,1.8096611E1,1.2170292E1,0E0,0E0,0E0,5.562668E-1,0E0,0E0,0E0,0E0,0E0,0E0,0E0,0E0,0E0,0E0,0E0,0E0,0E0,0E0,0E0,0E0,0E0,0E0,0E0,0E0,0E0,0E0,0E0,0E0,0E0,0E0,0E0,0E0,0E0,0E0,0E0,0E0,0E0,0E0,0E0,0E0,0E0,0E0,0E0,0E0,0E0],"parents":[2147483647,0,0,1,1,2,2,3,3,4,4,5,5,6,6,7,7,8,8,9,9,10,10,11,11,13,13,14,14,15,15,16,16,17,17,18,18,20,20,21,21,22,22,23,23,25,25,27,27,30,30,31,31,32,32,33,33,35,35,36,36,37,37,39,39,40,40,41,41,42,42,44,44,45,45,46,46,49,49,51,51,52,52,53,53,55,55,56,56,57,57,58,58,59,59,60,60,63,63,64,64,65,65,67,67,68,68,69,69,70,70,72,72,76,76,79,79,80,80,82,82,86,86,87,87,88,88,89,89,93,93,94,94,96,96,97,97,98,98,99,99,100,100,101,101,105,105,107,107,108,108,109,109,113,113],"right_children":[2,4,6,8,10,12,14,16,18,20,22,24,-1,26,28,30,32,34,36,-1,38,40,42,44,-1,46,-1,48,-1,-1,50,52,54,56,-1,58,60,62,-1,64,66,68,70,-1,72,74,76,-1,-1,78,-1,80,82,84,-1,86,88,90,92,94,96,-1,-1,98,100,102,-1,104,106,108,110,-1,112,-1,-1,-1,114,-1,-1,116,118,-1,120,-1,-1,-1,122,124,126,128,-1,-1,-1,130,132,-1,134,136,138,140,142,144,-1,-1,-1,146,-1,148,150,152,-1,-1,-1,154,-1,-1,-1,-1,-1,-1,-1,-1,-1,-1,-1,-1,-1,-1,-1,-1,-1,-1,-1,-1,-1,-1,-1,-1,-1,-1,-1,-1,-1,-1,-1,-1,-1,-1,-1,-1,-1,-1,-1,-1,-1],"split_conditions":[4.531E3,8.31E2,4.645E3,3.21E2,9.06E2,4.626E3,4.777E3,7.5E1,4.72E2,8.5E2,4.097E3,4.607E3,8.820973E-2,4.758E3,4.815E3,1.8E1,2.64E2,4.53E2,6.04E2,6.4406306E-2,8.87E2,3.983E3,4.21E3,4.55E3,5.6127716E-2,4.682E3,1.5718892E-2,4.796E3,-5.408621E-3,-1.9941062E-2,5.6E1,1.88E2,3.02E2,3.77E2,-1.6676538E-2,5.66E2,7.36E2,8.69E2,6.311472E-2,3.832E3,4.078E3,4.153E3,4.38E3,4.446313E-2,4.569E3,4.663E3,4.701E3,6.3576445E-2,7.7677704E-2,3.7E1,-3.1269852E-3,1.51E2,2.07E2,2.83E2,1.1563517E-2,3.4E2,4.15E2,5.47E2,5.85E2,6.99E2,7.55E2,7.4501345E-3,5.780662E-3,3.265E3,3.889E3,4.059E3,-2.1639792E-2,4.134E3,4.191E3,4.267E3,4.512E3,1.0815113E-2,4.588E3,6.538502E-3,8.874917E-3,-1.9278271E-2,4.739E3,-6.867165E-3,-9.399636E-3,1.32E2,1.7E2,1.9404287E-2,2.45E2,-4.543482E-3,-1.5942514E-3,-2.7112495E-2,3.58E2,3.96E2,4.34E2,5.1E2,-4.135938E-3,1.1736096E-2,1.1120676E-3,6.23E2,7.17E2,-2.7845263E-2,7.93E2,2.625E3,3.379E3,3.851E3,3.964E3,4.04E3,-2.612048E-2,1.9556068E-2,3.5626877E-2,4.172E3,2.87232E-2,4.248E3,4.323E3,4.493E3,-1.0167593E-2,3.5456754E-2,3.2843646E-2,4.72E3,4.299776E-3,4.037973E-3,2.3301251E-2,-7.5270975E-4,-8.113148E-3,7.863309E-3,1.7191261E-2,-3.226626E-2,-2.9704256E-2,-2.4961751E-2,-1.5075172E-2,-2.5601896E-2,-3.179871E-2,2.306173E-3,7.5652897E-3,-4.4608167E-3,-1.29395975E-2,8.027297E-3,3.0133552E-3,-5.2085295E-3,-1.9500038E-2,-2.5593669E-3,3.8142118E-3,-1.889554E-2,-4.714813E-3,3.7952553E-2,1.7553227E-2,-2.3172384E-3,2.3763431E-2,-2.3274781E-2,-2.1385761E-2,3.2742992E-3,7.540927E-3,1.9004558E-3,-1.8640297E-2,7.852942E-3,1.917685E-3,-4.700315E-3,1.6929832E-3,-6.8214997E-3,-4.94262E-3],"split_indices":[1,1,1,1,1,1,1,1,1,1,1,1,0,1,1,1,1,1,1,0,1,1,1,1,0,1,0,1,0,0,1,1,1,1,0,1,1,1,0,1,1,1,1,0,1,1,1,0,0,1,0,1,1,1,0,1,1,1,1,1,1,0,0,1,1,1,0,1,1,1,1,0,1,0,0,0,1,0,0,1,1,0,1,0,0,0,1,1,1,1,0,0,0,1,1,0,1,1,1,1,1,1,0,0,0,1,0,1,1,1,0,0,0,1,0,0,0,0,0,0,0,0,0,0,0,0,0,0,0,0,0,0,0,0,0,0,0,0,0,0,0,0,0,0,0,0,0,0,0,0,0,0,0,0,0],"split_type":[0,0,0,0,0,0,0,0,0,0,0,0,0,0,0,0,0,0,0,0,0,0,0,0,0,0,0,0,0,0,0,0,0,0,0,0,0,0,0,0,0,0,0,0,0,0,0,0,0,0,0,0,0,0,0,0,0,0,0,0,0,0,0,0,0,0,0,0,0,0,0,0,0,0,0,0,0,0,0,0,0,0,0,0,0,0,0,0,0,0,0,0,0,0,0,0,0,0,0,0,0,0,0,0,0,0,0,0,0,0,0,0,0,0,0,0,0,0,0,0,0,0,0,0,0,0,0,0,0,0,0,0,0,0,0,0,0,0,0,0,0,0,0,0,0,0,0,0,0,0,0,0,0,0,0],"sum_hessian":[7.45914E5,6.99063E5,4.6851E4,1.28312E5,5.70751E5,1.7591E4,2.926E4,4.9636E4,7.8676E4,1.1587E4,5.59164E5,1.4652E4,2.939E3,2.0339E4,8.921E3,1.1725E4,3.7911E4,2.3312E4,5.5364E4,2.929E3,8.658E3,4.92157E5,6.7007E4,1.1717E4,2.935E3,1.741E4,2.929E3,5.848E3,3.073E3,2.934E3,8.791E3,2.9113E4,8.798E3,2.0377E4,2.935E3,2.0359E4,3.5005E4,5.719E3,2.939E3,4.74584E5,1.7573E4,1.746E4,4.9547E4,2.921E3,8.796E3,5.707E3,1.1703E4,2.925E3,2.923E3,5.855E3,2.936E3,1.7414E4,1.1699E4,5.869E3,2.929E3,8.637E3,1.174E4,1.4491E4,5.868E3,2.0372E4,1.4633E4,2.936E3,2.783E3,4.5131E5,2.3274E4,1.4638E4,2.935E3,8.656E3,8.804E3,2.6222E4,2.3325E4,2.935E3,5.861E3,2.775E3,2.932E3,2.909E3,8.794E3,2.925E3,2.93E3,1.1719E4,5.695E3,2.925E3,8.774E3,2.931E3,2.938E3,2.93E3,5.707E3,5.867E3,5.873E3,1.1549E4,2.942E3,2.938E3,2.93E3,1.4671E4,5.701E3,2.929E3,1.1704E4,3.63823E5,8.7487E4,8.791E3,1.4483E4,1.1705E4,2.933E3,5.727E3,2.929E3,5.868E3,2.936E3,8.797E3,1.7425E4,2.0387E4,2.938E3,2.934E3,2.927E3,5.872E3,2.922E3,8.789E3,2.93E3,2.927E3,2.768E3,5.836E3,2.938E3,2.782E3,2.925E3,2.93E3,2.937E3,2.934E3,2.939E3,5.854E3,5.695E3,2.934E3,1.1737E4,2.768E3,2.933E3,5.857E3,5.847E3,2.65133E5,9.869E4,1.7596E4,6.9891E4,2.931E3,5.86E3,1.1556E4,2.927E3,8.786E3,2.919E3,2.927E3,2.941E3,5.87E3,2.927E3,8.638E3,8.787E3,1.7454E4,2.933E3,2.938E3,2.934E3],"tree_param":{"num_deleted":"0","num_feature":"2","num_nodes":"155","size_leaf_vector":"1"}},{"base_weights":[-2.7089004E-4,-1.7122507E-2,2.5102463E-1,-5.7500556E-2,-8.041858E-3,4.447062E-1,1.3462608E-1,2.5811391E-2,-1.1014974E-1,2.622452E-1,-1.8044913E-2,3.0983067E-1,7.143675E-1,5.283319E-3,4.2987037E-1,-1.0030075E-1,6.480715E-2,-2.4963601E-1,-5.154655E-2,5.9112955E-2,1.982188E-1,-1.5908694E-1,-1.180275E-2,4.0592674E-2,2.656867E-1,5.1330503E-2,7.9997405E-2,-2.1532893E-2,1.51609965E-2,6.827914E-1,-4.5835613E-3,-1.8258018E-2,-6.7470126E-2,7.842419E-2,1.9545354E-2,-2.9245055E-1,-2.2436121E-1,3.7062917E-2,-1.03029035E-1,6.4833365E-2,2.630211E-1,-7.889986E-2,-2.402598E-1,3.096114E-2,-2.8617226E-2,9.816593E-3,3.4554416E-1,7.343337E-2,-6.765375E-2,5.5226244E-2,7.028913E-2,-8.3011895E-2,-3.3346326E-3,4.3617062E-2,1.3012803E-1,-3.0302286E-2,1.0961067E-2,-2.5219606E-2,-2.7751151E-2,-2.3936859E-1,-1.5097056E-2,2.853212E-2,5.8112845E-2,-6.550633E-2,-1.5519346E-1,6.7559667E-3,5.1100194E-3,5.5616032E-2,1.4910068E-1,-1.9983803E-1,2.6129013E-2,-3.257859E-2,-2.039429E-1,-4.1338224E-3,2.182224E-1,-1.4027284E-1,-9.654747E-3,3.336512E-2,3.0183764E-2,5.1172376E-3,8.2858605E-3,-1.7810207E-2,-2.5775813E-2,-6.1839493E-3,-9.080604E-3,8.4647775E-2,-4.0758748E-2,1.7118745E-2,1.1146228E-1,-3.8577686E-3,-1.7076491E-3,-2.1544099E-1,-2.8596522E-2,4.5230806E-2,-3.4334487E-3,9.805331E-3,8.6638733E-4,-1.1007506E-1,4.8955575E-2,-2.4756974E-2,-1.2673804E-1,1.0658874E-2,1.9811673E-2,-3.4042146E-2,-1.1449313E-1,-1.3909908E-1,-3.0638674E-2,-2.9478164E-2,5.4539915E-2,2.869868E-1,1.1660984E-2,-1.2709771E-1,-2.610453E-1,9.598411E-2,-3.0115075E-2,-5.3141797E-3,3.514329E-3,3.5456144E-3,2.0509439E-2,-9.900407E-4,-6.6412063E-3,4.369983E-3,1.3185752E-2,-1.8445238E-2,-2.2531545E-2,1.8065402E-3,6.5722847E-3,-6.2403264E-3,-1.2704612E-2,6.6597057E-3,2.4384302E-3,-5.1843277E-3,-1.8104354E-2,4.739063E-3,-2.578881E-2,-1.5237828E-2,-1.03259105E-2,-1.0562649E-3,-2.5732992E-2,2.830638E-2,-2.0416682E-3,2.1253433E-2,3.1528108E-2,-3.2111967E-4,2.483767E-3,-1.5289046E-2,-3.1226256E-3,-3.4171086E-2,-1.1885095E-2,-3.9612628E-3,2.5207946E-2,-1.9208053E-2,-1.0095842E-3],"categories":[],"categories_nodes":[],"categories_segments":[],"categories_sizes":[],"default_left":[0,0,0,0,0,0,0,0,0,0,0,0,0,0,0,0,0,0,0,0,0,0,0,0,0,0,0,0,0,0,0,0,0,0,0,0,0,0,0,0,0,0,0,0,0,0,0,0,0,0,0,0,0,0,0,0,0,0,0,0,0,0,0,0,0,0,0,0,0,0,0,0,0,0,0,0,0,0,0,0,0,0,0,0,0,0,0,0,0,0,0,0,0,0,0,0,0,0,0,0,0,0,0,0,0,0,0,0,0,0,0,0,0,0,0,0,0,0,0,0,0,0,0,0,0,0,0,0,0,0,0,0,0,0,0,0,0,0,0,0,0,0,0,0,0,0,0,0,0,0,0,0,0],"id":12,"left_children":[1,3,5,7,9,11,13,15,17,19,21,23,25,27,29,31,33,35,37,-1,39,41,43,-1,45,-1,-1,47,-1,49,-1,-1,51,53,55,57,59,61,63,65,67,69,71,73,75,-1,77,79,81,-1,-1,83,-1,85,87,89,-1,-1,-1,91,-1,93,95,97,99,-1,-1,-1,101,103,-1,-1,105,107,109,111,113,-1,-1,-1,-1,-1,115,-1,-1,117,119,-1,121,-1,-1,123,-1,125,-1,-1,-1,127,129,-1,131,-1,-1,-1,133,135,-1,137,139,141,143,145,147,149,151,-1,-1,-1,-1,-1,-1,-1,-1,-1,-1,-1,-1,-1,-1,-1,-1,-1,-1,-1,-1,-1,-1,-1,-1,-1,-1,-1,-1,-1,-1,-1,-1,-1,-1,-1,-1,-1,-1],"loss_changes":[3.1592231E3,2.563274E2,1.0566743E3,5.630577E2,1.5431907E3,6.3946436E2,1.1182052E3,2.4441882E2,6.4283105E2,4.9581262E2,4.8453705E2,6.775525E1,1.4155664E2,8.721027E1,1.0826161E3,3.7726547E1,2.3357819E1,2.4918335E1,2.5270866E2,0E0,1.505763E2,1.5168024E2,3.790219E2,0E0,1.11342285E2,0E0,0E0,7.636323E1,0E0,3.8302002E1,0E0,0E0,4.2169304E0,5.2434845E1,4.3689896E1,1.1660156E0,1.3032471E1,3.617218E0,6.8481445E1,3.9922333E-1,4.5638013E2,5.152991E2,4.768579E1,9.777151E2,8.0101807E2,0E0,1.3811646E0,1.6240635E0,6.184491E1,0E0,0E0,1.3804779E0,0E0,6.0414066E1,1.21289215E1,7.7412224E-1,0E0,0E0,0E0,1.9790466E1,0E0,1.5950818E1,1.3777452E1,1.0401989E2,4.7344025E1,0E0,0E0,0E0,1.9225403E1,1.2775879E2,0E0,0E0,7.3433105E1,1.8628427E2,3.3339282E2,8.7210815E1,6.990432E2,0E0,0E0,0E0,0E0,0E0,1.8060184E1,0E0,0E0,7.476122E1,5.3462057E0,0E0,1.7889084E1,0E0,0E0,3.643219E0,0E0,7.727585E0,0E0,0E0,0E0,1.7296234E1,2.9632835E0,0E0,5.7762787E1,0E0,0E0,0E0,1.6175974E2,4.0479813E0,0E0,3.939499E2,7.3443506E2,5.4669434E1,1.3741024E0,1.8048566E2,7.8395905E1,1.2997599E3,9.267513E2,0E0,0E0,0E0,0E0,0E0,0E0,0E0,0E0,0E0,0E0,0E0,0E0,0E0,0E0,0E0,0E0,0E0,0E0,0E0,0E0,0E0,0E0,0E0,0E0,0E0,0E0,0E0,0E0,0E0,0E0,0E0,0E0,0E0,0E0,0E0,0E0,0E0,0E0],"parents":[2147483647,0,0,1,1,2,2,3,3,4,4,5,5,6,6,7,7,8,8,9,9,10,10,11,11,12,12,13,13,14,14,15,15,16,16,17,17,18,18,20,20,21,21,22,22,24,24,27,27,29,29,32,32,33,33,34,34,35,35,36,36,37,37,38,38,39,39,40,40,41,41,42,42,43,43,44,44,46,46,47,47,48,48,51,51,53,53,54,54,55,55,59,59,61,61,62,62,63,63,64,64,68,68,69,69,72,72,73,73,74,74,75,75,76,76,82,82,85,85,86,86,88,88,91,91,93,93,97,97,98,98,100,100,104,104,105,105,107,107,108,108,109,109,110,110,111,111,112,112,113,113,114,114],"right_children":[2,4,6,8,10,12,14,16,18,20,22,24,26,28,30,32,34,36,38,-1,40,42,44,-1,46,-1,-1,48,-1,50,-1,-1,52,54,56,58,60,62,64,66,68,70,72,74,76,-1,78,80,82,-1,-1,84,-1,86,88,90,-1,-1,-1,92,-1,94,96,98,100,-1,-1,-1,102,104,-1,-1,106,108,110,112,114,-1,-1,-1,-1,-1,116,-1,-1,118,120,-1,122,-1,-1,124,-1,126,-1,-1,-1,128,130,-1,132,-1,-1,-1,134,136,-1,138,140,142,144,146,148,150,152,-1,-1,-1,-1,-1,-1,-1,-1,-1,-1,-1,-1,-1,-1,-1,-1,-1,-1,-1,-1,-1,-1,-1,-1,-1,-1,-1,-1,-1,-1,-1,-1,-1,-1,-1,-1,-1,-1],"split_conditions":[4.531E3,8.31E2,4.645E3,3.21E2,9.63E2,4.607E3,4.777E3,7.5E1,4.72E2,8.5E2,1.114E3,4.55E3,4.626E3,4.758E3,4.815E3,1.8E1,2.64E2,3.77E2,6.04E2,5.9112955E-2,8.87E2,1.039E3,2.078E3,4.0592674E-2,4.569E3,5.1330503E-2,7.9997405E-2,4.682E3,1.51609965E-2,4.796E3,-4.5835613E-3,-1.8258018E-2,5.6E1,1.88E2,3.02E2,3.4E2,4.53E2,5.66E2,7.36E2,8.69E2,9.06E2,1.02E3,1.057E3,1.926E3,2.434E3,9.816593E-3,4.588E3,4.663E3,4.701E3,5.5226244E-2,7.028913E-2,3.7E1,-3.3346326E-3,1.51E2,2.07E2,2.83E2,1.0961067E-2,-2.5219606E-2,-2.7751151E-2,4.34E2,-1.5097056E-2,5.47E2,5.85E2,6.99E2,7.55E2,6.7559667E-3,5.1100194E-3,5.5616032E-2,9.44E2,9.82E2,2.6129013E-2,-3.257859E-2,1.095E3,1.681E3,2.04E3,2.399E3,2.774E3,3.336512E-2,3.0183764E-2,5.1172376E-3,8.2858605E-3,-1.7810207E-2,4.739E3,-6.1839493E-3,-9.080604E-3,1.32E2,1.7E2,1.7118745E-2,2.26E2,-3.8577686E-3,-1.7076491E-3,4.15E2,-2.8596522E-2,5.1E2,-3.4334487E-3,9.805331E-3,8.6638733E-4,6.42E2,7.17E2,-2.4756974E-2,7.93E2,1.0658874E-2,1.9811673E-2,-3.4042146E-2,1.001E3,1.076E3,-3.0638674E-2,1.643E3,1.738E3,1.983E3,2.059E3,2.304E3,2.418E3,2.625E3,2.944E3,-5.3141797E-3,3.514329E-3,3.5456144E-3,2.0509439E-2,-9.900407E-4,-6.6412063E-3,4.369983E-3,1.3185752E-2,-1.8445238E-2,-2.2531545E-2,1.8065402E-3,6.5722847E-3,-6.2403264E-3,-1.2704612E-2,6.6597057E-3,2.4384302E-3,-5.1843277E-3,-1.8104354E-2,4.739063E-3,-2.578881E-2,-1.5237828E-2,-1.03259105E-2,-1.0562649E-3,-2.5732992E-2,2.830638E-2,-2.0416682E-3,2.1253433E-2,3.1528108E-2,-3.2111967E-4,2.483767E-3,-1.5289046E-2,-3.1226256E-3,-3.4171086E-2,-1.1885095E-2,-3.9612628E-3,2.5207946E-2,-1.9208053E-2,-1.0095842E-3],"split_indices":[1,1,1,1,1,1,1,1,1,1,1,1,1,1,1,1,1,1,1,0,1,1,1,0,1,0,0,1,0,1,0,0,1,1,1,1,1,1,1,1,1,1,1,1,1,0,1,1,1,0,0,1,0,1,1,1,0,0,0,1,0,1,1,1,1,0,0,0,1,1,0,0,1,1,1,1,1,0,0,0,0,0,1,0,0,1,1,0,1,0,0,1,0,1,0,0,0,1,1,0,1,0,0,0,1,1,0,1,1,1,1,1,1,1,1,0,0,0,0,0,0,0,0,0,0,0,0,0,0,0,0,0,0,0,0,0,0,0,0,0,0,0,0,0,0,0,0,0,0,0,0,0,0],"split_type":[0,0,0,0,0,0,0,0,0,0,0,0,0,0,0,0,0,0,0,0,0,0,0,0,0,0,0,0,0,0,0,0,0,0,0,0,0,0,0,0,0,0,0,0,0,0,0,0,0,0,0,0,0,0,0,0,0,0,0,0,0,0,0,0,0,0,0,0,0,0,0,0,0,0,0,0,0,0,0,0,0,0,0,0,0,0,0,0,0,0,0,0,0,0,0,0,0,0,0,0,0,0,0,0,0,0,0,0,0,0,0,0,0,0,0,0,0,0,0,0,0,0,0,0,0,0,0,0,0,0,0,0,0,0,0,0,0,0,0,0,0,0,0,0,0,0,0,0,0,0,0,0,0],"sum_hessian":[7.46048E5,6.99165E5,4.6883E4,1.28358E5,5.70807E5,1.7597E4,2.9286E4,4.9702E4,7.8656E4,2.0369E4,5.50438E5,1.1732E4,5.865E3,2.0366E4,8.92E3,1.1736E4,3.7966E4,2.3267E4,5.5389E4,2.932E3,1.7437E4,2.3325E4,5.27113E5,2.944E3,8.788E3,2.928E3,2.937E3,1.7434E4,2.932E3,5.841E3,3.079E3,2.936E3,8.8E3,2.9178E4,8.788E3,8.628E3,1.4639E4,2.0352E4,3.5037E4,5.704E3,1.1733E4,1.1737E4,1.1588E4,1.48757E5,3.78356E5,2.941E3,5.847E3,5.696E3,1.1738E4,2.911E3,2.93E3,5.865E3,2.935E3,1.7444E4,1.1734E4,5.855E3,2.933E3,2.935E3,5.693E3,1.1711E4,2.928E3,1.4498E4,5.854E3,2.0384E4,1.4653E4,2.929E3,2.775E3,2.932E3,8.801E3,8.805E3,2.932E3,2.796E3,8.792E3,1.25277E5,2.348E4,5.4924E4,3.23432E5,2.914E3,2.933E3,2.768E3,2.928E3,2.925E3,8.813E3,2.943E3,2.922E3,1.174E4,5.704E3,2.926E3,8.808E3,2.92E3,2.935E3,8.783E3,2.928E3,1.1571E4,2.927E3,2.928E3,2.926E3,1.4674E4,5.71E3,2.923E3,1.173E4,5.87E3,2.931E3,2.937E3,5.868E3,5.857E3,2.935E3,8.7492E4,3.7785E4,1.7614E4,5.866E3,4.9526E4,5.398E3,5.2475E4,2.70957E5,5.879E3,2.934E3,8.809E3,2.931E3,2.927E3,2.777E3,2.937E3,5.871E3,5.854E3,2.929E3,5.866E3,5.705E3,5.866E3,8.808E3,2.782E3,2.928E3,5.858E3,5.872E3,2.932E3,2.936E3,2.932E3,2.925E3,8.1627E4,5.865E3,8.788E3,2.8997E4,8.807E3,8.807E3,2.938E3,2.928E3,3.4868E4,1.4658E4,2.934E3,2.464E3,2.9467E4,2.3008E4,2.6203E4,2.44754E5],"tree_param":{"num_deleted":"0","num_feature":"2","num_nodes":"153","size_leaf_vector":"1"}},{"base_weights":[-8.19859E-5,9.487583E-3,-9.3961945E-3,-3.2007344E-2,4.941241E-2,2.2577146E-2,-5.0203223E-2,2.022889E-3,6.260671E-2,1.0727693E-3,3.0794013E-3,-5.3905226E-2,-4.2804666E-2,6.3797464E-3,5.1803384E-3,-5.0674565E-2,-5.71313E-2,-2.9904817E-3,-4.8820106E-3,-5.170438E-3,-4.150114E-3,-5.7575405E-3,-4.751246E-3],"categories":[],"categories_nodes":[],"categories_segments":[],"categories_sizes":[],"default_left":[0,0,0,0,0,0,0,0,0,0,0,0,0,0,0,0,0,0,0,0,0,0,0],"id":13,"left_children":[1,-1,3,5,7,9,11,-1,13,-1,-1,15,17,-1,-1,19,21,-1,-1,-1,-1,-1,-1],"loss_changes":[7.1721326E2,0E0,9.0974146E2,4.908249E2,6.86936E1,1.4683674E1,1.010907E1,0E0,5.390442E0,0E0,0E0,2.5267944E0,1.30381775E1,0E0,0E0,3.7550354E0,3.6464233E0,0E0,0E0,0E0,0E0,0E0,0E0],"parents":[2147483647,0,0,2,2,3,3,4,4,5,5,6,6,8,8,11,11,12,12,15,15,16,16],"right_children":[2,-1,4,6,8,10,12,-1,14,-1,-1,16,18,-1,-1,20,22,-1,-1,-1,-1,-1,-1],"split_conditions":[2E0,9.487583E-3,1E1,4E0,1.1E1,3E0,8E0,2.022889E-3,1.2E1,1.0727693E-3,3.0794013E-3,6E0,9E0,6.3797464E-3,5.1803384E-3,5E0,7E0,-2.9904817E-3,-4.8820106E-3,-5.170438E-3,-4.150114E-3,-5.7575405E-3,-4.751246E-3],"split_indices":[0,0,0,0,0,0,0,0,0,0,0,0,0,0,0,0,0,0,0,0,0,0,0],"split_type":[0,0,0,0,0,0,0,0,0,0,0,0,0,0,0,0,0,0,0,0,0,0,0],"sum_hessian":[7.45877E5,6.1718E4,6.84159E5,4.94166E5,1.89993E5,1.23541E5,3.70625E5,6.1738E4,1.28255E5,6.1771E4,6.177E4,2.46982E5,1.23643E5,6.1723E4,6.6532E4,1.23474E5,1.23508E5,6.1813E4,6.183E4,6.1723E4,6.1751E4,6.1703E4,6.1805E4],"tree_param":{"num_deleted":"0","num_feature":"2","num_nodes":"23","size_leaf_vector":"1"}},{"base_weights":[9.304417E-5,-1.5249872E-2,2.2873293E-1,-2.1020604E-2,3.9255723E-2,4.017738E-1,1.2490397E-1,-1.5019591E-2,-2.3076952E-1,1.8788628E-1,-1.3101732E-2,2.7977166E-1,6.4512926E-1,4.9196836E-3,3.9793548E-1,-1.988506E-2,1.08437315E-1,-2.3447575E-1,-1.9505529E-2,2.4693912E-1,1.2973927E-1,1.4145889E-2,-4.3748654E-2,3.7150722E-2,2.3838514E-1,4.6390876E-2,7.220731E-2,-2.0166596E-2,1.420049E-2,6.318712E-1,-4.147727E-3,-1.0746589E-2,-7.6951325E-2,3.4074076E-2,7.0673324E-2,-2.2913617E-1,-2.3513539E-2,1.7710723E-2,3.2417398E-2,5.4314192E-2,2.571982E-2,-3.6738954E-2,5.5295147E-2,-3.557275E-2,-9.22433E-3,9.168576E-3,3.0786622E-1,5.957893E-3,-6.158761E-2,5.2751765E-2,6.342385E-2,-5.220407E-2,3.207346E-3,-2.6400393E-1,-4.558257E-2,4.417193E-2,2.103036E-2,-2.1726156E-2,-1.9097358E-2,3.2864634E-3,6.6879108E-3,5.608943E-3,-6.947216E-2,1.05247125E-2,1.6988182E-2,-4.553006E-2,2.1623096E-3,2.9616898E-2,2.6994262E-2,-1.6243974E-2,-2.31797E-2,2.359055E-2,-1.0008098E-1,2.4342577E-1,-1.0341671E-2,-2.7828532E-1,-2.032007E-2,-9.934967E-2,-1.8693592E-2,1.6843285E-1,-1.8722259E-2,-1.03804104E-1,-4.6295598E-5,4.3879803E-3,1.5695354E-3,-2.5625344E-2,-8.630051E-2,-5.3890284E-2,3.4940701E-3,-8.335695E-3,5.4204254E-3,-2.1058675E-2,-4.2147706E-3,5.3246707E-2,1.7178776E-2,-1.0702318E-2,1.9488505E-4,-2.4022985E-2,-2.8730825E-2,-4.14721E-3,-1.7341187E-2,6.171587E-4,-4.7224057E-3,1.3106762E-2,1.7842527E-2,-1.078571E-2,1.3465203E-3,-2.4829372E-3,-1.6607339E-2,-1.9073839E-3,2.1931764E-3,-5.4190103E-3,6.814971E-3,-1.1441143E-2,-4.233211E-3,-5.9814444E-3,-3.918848E-3],"categories":[],"categories_nodes":[],"categories_segments":[],"categories_sizes":[],"default_left":[0,0,0,0,0,0,0,0,0,0,0,0,0,0,0,0,0,0,0,0,0,0,0,0,0,0,0,0,0,0,0,0,0,0,0,0,0,0,0,0,0,0,0,0,0,0,0,0,0,0,0,0,0,0,0,0,0,0,0,0,0,0,0,0,0,0,0,0,0,0,0,0,0,0,0,0,0,0,0,0,0,0,0,0,0,0,0,0,0,0,0,0,0,0,0,0,0,0,0,0,0,0,0,0,0,0,0,0,0,0,0,0,0,0,0,0,0],"id":14,"left_children":[1,3,5,7,9,11,13,15,17,19,21,23,25,27,29,31,33,35,-1,37,39,41,43,-1,45,-1,-1,47,-1,49,-1,51,53,-1,55,57,-1,-1,-1,59,-1,61,63,65,-1,-1,67,-1,69,-1,-1,71,73,75,77,79,-1,-1,-1,-1,-1,-1,81,-1,83,85,-1,-1,-1,-1,87,89,91,93,95,97,-1,99,101,103,105,107,-1,-1,109,111,113,115,-1,-1,-1,-1,-1,-1,-1,-1,-1,-1,-1,-1,-1,-1,-1,-1,-1,-1,-1,-1,-1,-1,-1,-1,-1,-1,-1,-1,-1],"loss_changes":[2.6166433E3,2.198464E2,8.4250146E2,7.9547656E2,5.207762E2,5.21699E2,9.602931E2,3.690708E2,9.968262E-1,5.967987E1,4.133113E1,5.9886597E1,1.1486621E2,7.644528E1,9.2782166E2,3.0826746E2,2.3033856E2,1.414917E0,0E0,4.9329285E1,9.9227646E1,5.4838566E1,1.0710583E1,0E0,8.453937E1,0E0,0E0,6.136847E1,0E0,1.893042E1,0E0,2.948181E2,4.786447E2,0E0,8.514251E1,1.5682983E0,0E0,0E0,0E0,1.9529839E0,0E0,3.7444992E1,3.2754704E1,1.1987904E1,0E0,0E0,8.699951E-1,0E0,5.1729607E1,0E0,0E0,4.6573965E2,1.2409915E3,6.955078E0,1.0097995E2,1.363766E2,0E0,0E0,0E0,0E0,0E0,0E0,2.0723465E1,0E0,4.1453185E0,1.4096016E1,0E0,0E0,0E0,0E0,1.653162E1,2.0057375E2,5.499152E2,3.8648242E2,4.768602E2,4.8256226E0,0E0,1.1262544E2,3.8668194E1,3.7271118E0,3.811549E1,3.441377E1,0E0,0E0,2.9167557E0,3.891202E1,8.687042E0,6.89785E-1,0E0,0E0,0E0,0E0,0E0,0E0,0E0,0E0,0E0,0E0,0E0,0E0,0E0,0E0,0E0,0E0,0E0,0E0,0E0,0E0,0E0,0E0,0E0,0E0,0E0,0E0,0E0,0E0,0E0],"parents":[2147483647,0,0,1,1,2,2,3,3,4,4,5,5,6,6,7,7,8,8,9,9,10,10,11,11,12,12,13,13,14,14,15,15,16,16,17,17,19,19,20,20,21,21,22,22,24,24,27,27,29,29,31,31,32,32,34,34,35,35,39,39,41,41,42,42,43,43,46,46,48,48,51,51,52,52,53,53,54,54,55,55,62,62,64,64,65,65,70,70,71,71,72,72,73,73,74,74,75,75,77,77,78,78,79,79,80,80,81,81,84,84,85,85,86,86,87,87],"right_children":[2,4,6,8,10,12,14,16,18,20,22,24,26,28,30,32,34,36,-1,38,40,42,44,-1,46,-1,-1,48,-1,50,-1,52,54,-1,56,58,-1,-1,-1,60,-1,62,64,66,-1,-1,68,-1,70,-1,-1,72,74,76,78,80,-1,-1,-1,-1,-1,-1,82,-1,84,86,-1,-1,-1,-1,88,90,92,94,96,98,-1,100,102,104,106,108,-1,-1,110,112,114,116,-1,-1,-1,-1,-1,-1,-1,-1,-1,-1,-1,-1,-1,-1,-1,-1,-1,-1,-1,-1,-1,-1,-1,-1,-1,-1,-1,-1,-1],"split_conditions":[4.531E3,4.097E3,4.645E3,3.983E3,4.21E3,4.607E3,4.777E3,3.832E3,4.078E3,4.153E3,4.38E3,4.55E3,4.626E3,4.758E3,4.815E3,3.303E3,3.851E3,4.059E3,-1.9505529E-2,4.134E3,4.191E3,4.286E3,4.512E3,3.7150722E-2,4.569E3,4.6390876E-2,7.220731E-2,4.682E3,1.420049E-2,4.796E3,-4.147727E-3,8.31E2,3.379E3,3.4074076E-2,3.964E3,4.04E3,-2.3513539E-2,1.7710723E-2,3.2417398E-2,4.172E3,2.571982E-2,4.229E3,4.323E3,4.493E3,-9.22433E-3,9.168576E-3,4.588E3,5.957893E-3,4.701E3,5.2751765E-2,6.342385E-2,3.21E2,9.63E2,3.36E3,3.53E3,3.889E3,2.103036E-2,-2.1726156E-2,-1.9097358E-2,3.2864634E-3,6.6879108E-3,5.608943E-3,4.267E3,1.05247125E-2,4.342E3,4.456E3,2.1623096E-3,2.9616898E-2,2.6994262E-2,-1.6243974E-2,4.739E3,7.5E1,4.72E2,8.5E2,1.209E3,3.341E3,-2.032007E-2,3.473E3,3.7E3,3.87E3,3.908E3,4.248E3,-4.6295598E-5,4.3879803E-3,4.361E3,4.437E3,4.475E3,4.72E3,3.4940701E-3,-8.335695E-3,5.4204254E-3,-2.1058675E-2,-4.2147706E-3,5.3246707E-2,1.7178776E-2,-1.0702318E-2,1.9488505E-4,-2.4022985E-2,-2.8730825E-2,-4.14721E-3,-1.7341187E-2,6.171587E-4,-4.7224057E-3,1.3106762E-2,1.7842527E-2,-1.078571E-2,1.3465203E-3,-2.4829372E-3,-1.6607339E-2,-1.9073839E-3,2.1931764E-3,-5.4190103E-3,6.814971E-3,-1.1441143E-2,-4.233211E-3,-5.9814444E-3,-3.918848E-3],"split_indices":[1,1,1,1,1,1,1,1,1,1,1,1,1,1,1,1,1,1,0,1,1,1,1,0,1,0,0,1,0,1,0,1,1,0,1,1,0,0,0,1,0,1,1,1,0,0,1,0,1,0,0,1,1,1,1,1,0,0,0,0,0,0,1,0,1,1,0,0,0,0,1,1,1,1,1,1,0,1,1,1,1,1,0,0,1,1,1,1,0,0,0,0,0,0,0,0,0,0,0,0,0,0,0,0,0,0,0,0,0,0,0,0,0,0,0,0,0],"split_type":[0,0,0,0,0,0,0,0,0,0,0,0,0,0,0,0,0,0,0,0,0,0,0,0,0,0,0,0,0,0,0,0,0,0,0,0,0,0,0,0,0,0,0,0,0,0,0,0,0,0,0,0,0,0,0,0,0,0,0,0,0,0,0,0,0,0,0,0,0,0,0,0,0,0,0,0,0,0,0,0,0,0,0,0,0,0,0,0,0,0,0,0,0,0,0,0,0,0,0,0,0,0,0,0,0,0,0,0,0,0,0,0,0,0,0,0,0],"sum_hessian":[7.4588E5,6.98974E5,4.6906E4,6.32063E5,6.6911E4,1.7588E4,2.9318E4,6.14485E5,1.7578E4,1.7432E4,4.9479E4,1.1717E4,5.871E3,2.0369E4,8.949E3,5.9119E5,2.3295E4,1.4643E4,2.935E3,8.644E3,8.788E3,2.6185E4,2.3294E4,2.925E3,8.792E3,2.931E3,2.94E3,1.744E4,2.929E3,5.857E3,3.092E3,5.09593E5,8.1597E4,2.932E3,2.0363E4,1.1718E4,2.925E3,5.709E3,2.935E3,5.849E3,2.939E3,1.1703E4,1.4482E4,2.0359E4,2.935E3,2.937E3,5.855E3,5.713E3,1.1727E4,2.922E3,2.935E3,1.28335E5,3.81258E5,1.1716E4,6.9881E4,1.7441E4,2.922E3,8.789E3,2.929E3,2.923E3,2.926E3,2.933E3,8.77E3,5.688E3,8.794E3,1.7429E4,2.93E3,2.925E3,2.93E3,2.932E3,8.795E3,4.9679E4,7.8656E4,2.0357E4,3.60901E5,8.788E3,2.928E3,2.3291E4,4.659E4,5.863E3,1.1578E4,5.851E3,2.919E3,2.929E3,5.865E3,1.1719E4,5.71E3,5.86E3,2.935E3,1.1737E4,3.7942E4,2.3297E4,5.5359E4,2.938E3,1.7419E4,3.7957E4,3.22944E5,5.868E3,2.92E3,1.4486E4,8.805E3,2.6197E4,2.0393E4,2.922E3,2.941E3,2.931E3,8.647E3,2.928E3,2.923E3,2.921E3,2.944E3,8.789E3,2.93E3,2.928E3,2.782E3,2.927E3,2.933E3],"tree_param":{"num_deleted":"0","num_feature":"2","num_nodes":"117","size_leaf_vector":"1"}},{"base_weights":[1.7961896E-4,8.736925E-3,-8.374753E-3,-2.9002987E-2,4.5311965E-2,2.02973E-2,-4.5429315E-2,1.9117132E-3,5.7140708E-2,1.0019594E-3,2.7300485E-3,-4.8673835E-2,-3.8938772E-2,5.769617E-3,4.7766017E-3,-4.512255E-2,-5.221936E-2,-2.804935E-3,-4.356157E-3,-4.578389E-3,-3.7201867E-3,-5.166004E-3,-4.4385097E-3],"categories":[],"categories_nodes":[],"categories_segments":[],"categories_sizes":[],"default_left":[0,0,0,0,0,0,0,0,0,0,0,0,0,0,0,0,0,0,0,0,0,0,0],"id":15,"left_children":[1,-1,3,5,7,9,11,-1,13,-1,-1,15,17,-1,-1,19,21,-1,-1,-1,-1,-1,-1],"loss_changes":[6.050629E2,0E0,7.5770703E2,4.0028928E2,5.5060608E1,1.0885487E1,7.76947E0,0E0,3.6784058E0,0E0,0E0,3.069336E0,8.757843E0,0E0,0E0,2.6499329E0,1.8878479E0,0E0,0E0,0E0,0E0,0E0,0E0],"parents":[2147483647,0,0,2,2,3,3,4,4,5,5,6,6,8,8,11,11,12,12,15,15,16,16],"right_children":[2,-1,4,6,8,10,12,-1,14,-1,-1,16,18,-1,-1,20,22,-1,-1,-1,-1,-1,-1],"split_conditions":[2E0,8.736925E-3,1E1,4E0,1.1E1,3E0,8E0,1.9117132E-3,1.2E1,1.0019594E-3,2.7300485E-3,6E0,9E0,5.769617E-3,4.7766017E-3,5E0,7E0,-2.804935E-3,-4.356157E-3,-4.578389E-3,-3.7201867E-3,-5.166004E-3,-4.4385097E-3],"split_indices":[0,0,0,0,0,0,0,0,0,0,0,0,0,0,0,0,0,0,0,0,0,0,0],"split_type":[0,0,0,0,0,0,0,0,0,0,0,0,0,0,0,0,0,0,0,0,0,0,0],"sum_hessian":[7.45918E5,6.173E4,6.84188E5,4.94278E5,1.8991E5,1.23523E5,3.70755E5,6.1804E4,1.28106E5,6.1733E4,6.179E4,2.47143E5,1.23612E5,6.1698E4,6.6408E4,1.23535E5,1.23608E5,6.1783E4,6.1829E4,6.1805E4,6.173E4,6.18E4,6.1808E4],"tree_param":{"num_deleted":"0","num_feature":"2","num_nodes":"23","size_leaf_vector":"1"}},{"base_weights":[-5.5895292E-5,-1.4019683E-2,2.0808333E-1,-4.6879422E-2,-6.63421E-3,3.6386648E-1,1.14538856E-1,2.288897E-2,-9.089707E-2,2.1776418E-1,-1.4937348E-2,2.5164977E-1,5.8800346E-1,4.6019815E-3,3.649404E-1,-1.02305934E-1,4.9830247E-2,-2.0728241E-1,-4.192132E-2,4.782101E-2,1.6684084E-1,-1.3479899E-1,-9.645901E-3,3.383767E-2,2.1293856E-1,4.2652946E-2,6.543948E-2,-1.8057449E-2,1.285669E-2,5.780044E-1,-3.6904274E-3,-1.6103776E-2,-6.57907E-2,-3.555512E-3,5.879428E-2,-2.4304506E-1,-1.8617675E-1,3.688926E-2,-8.7710574E-2,4.1726795E-3,2.2595365E-1,-6.0555592E-2,-2.1003315E-1,2.8676145E-2,-2.5059056E-2,7.560766E-3,2.783821E-1,6.391319E-2,-5.8041655E-2,4.7576264E-2,5.8695074E-2,-5.091473E-3,-6.9976696E-3,-1.3515317E-3,6.847479E-4,7.531907E-2,9.403587E-3,-2.031834E-2,-2.5429153E-1,-1.9884829E-1,-1.2448718E-2,2.7967323E-2,5.8865402E-2,-5.244717E-2,-1.3660853E-1,4.9227323E-2,1.2257262E-1,-1.746534E-1,2.5780266E-2,-2.887241E-2,-1.7721914E-1,-2.4276956E-3,1.7891556E-1,-1.3260536E-1,-7.626228E-3,2.6775686E-2,2.4413412E-2,4.8909117E-3,6.7985444E-3,-1.4582341E-2,-2.4368864E-2,4.130772E-2,1.1737351E-1,-2.9711617E-2,8.071881E-3,-2.4503797E-2,-2.230748E-2,-1.5939093E-1,-2.3821189E-1,4.3676786E-2,-3.1169048E-3,9.64735E-3,1.1774049E-3,-9.432228E-2,5.514892E-2,-2.2679301E-2,-1.09063484E-1,8.316311E-3,1.7143602E-2,-2.9677548E-2,-1.0039625E-1,-1.2032974E-1,-2.6700366E-2,-2.4381066E-2,5.4455552E-2,2.6083523E-1,5.732483E-4,-1.6566554E-1,-9.016193E-2,7.9143666E-2,-2.7905717E-2,-4.5484295E-3,2.3797802E-3,8.789793E-3,-3.8723892E-3,1.5577533E-2,9.196676E-3,-4.098661E-3,-1.3488377E-3,-1.8806867E-2,-1.048485E-2,-1.9413136E-2,-2.4382573E-2,1.955104E-3,6.1297487E-3,-5.0402237E-3,-1.1087023E-2,7.399193E-3,2.8622125E-3,-4.2980453E-3,-1.5747398E-2,4.481816E-3,-2.2964431E-2,-1.3458524E-2,-8.671315E-3,-7.884744E-4,-1.5709333E-2,3.8592026E-2,-1.7641499E-3,1.9497683E-2,2.84661E-2,-1.3668575E-2,-1.7550867E-2,-4.262344E-3,-2.1420358E-2,-3.7277157E-3,1.7485589E-2,-2.7920673E-2,-7.631996E-4],"categories":[],"categories_nodes":[],"categories_segments":[],"categories_sizes":[],"default_left":[0,0,0,0,0,0,0,0,0,0,0,0,0,0,0,0,0,0,0,0,0,0,0,0,0,0,0,0,0,0,0,0,0,0,0,0,0,0,0,0,0,0,0,0,0,0,0,0,0,0,0,0,0,0,0,0,0,0,0,0,0,0,0,0,0,0,0,0,0,0,0,0,0,0,0,0,0,0,0,0,0,0,0,0,0,0,0,0,0,0,0,0,0,0,0,0,0,0,0,0,0,0,0,0,0,0,0,0,0,0,0,0,0,0,0,0,0,0,0,0,0,0,0,0,0,0,0,0,0,0,0,0,0,0,0,0,0,0,0,0,0,0,0,0,0,0,0,0,0],"id":16,"left_children":[1,3,5,7,9,11,13,15,17,19,21,23,25,27,29,31,33,35,37,-1,39,41,43,-1,45,-1,-1,47,-1,49,-1,-1,51,53,55,57,59,61,63,-1,65,67,69,71,73,-1,75,77,79,-1,-1,-1,-1,-1,-1,81,83,-1,85,87,-1,89,91,93,95,-1,97,99,-1,-1,101,103,105,107,109,-1,-1,-1,-1,-1,111,113,115,117,-1,-1,-1,119,121,123,-1,-1,-1,125,127,-1,129,-1,-1,-1,131,133,-1,135,137,139,-1,141,143,145,147,-1,-1,-1,-1,-1,-1,-1,-1,-1,-1,-1,-1,-1,-1,-1,-1,-1,-1,-1,-1,-1,-1,-1,-1,-1,-1,-1,-1,-1,-1,-1,-1,-1,-1,-1,-1,-1,-1],"loss_changes":[2.1675444E3,1.6959462E2,6.830491E2,3.938898E2,1.0631982E3,4.4196387E2,8.06387E2,1.673101E2,4.481458E2,3.12989E2,3.489688E2,5.247412E1,8.932385E1,6.2427994E1,7.716074E2,2.32361E1,1.9561531E1,1.7368042E1,1.9977335E2,0E0,1.25010376E2,1.298201E2,3.113074E2,0E0,7.511749E1,0E0,0E0,5.714907E1,0E0,2.0703491E1,0E0,0E0,5.7055664E-1,7.2171336E-1,2.8500992E1,1.9113464E0,9.27948E0,3.950163E0,6.029181E1,0E0,3.7443146E2,4.5552127E2,3.914203E1,7.0648914E2,7.0465485E2,0E0,6.82312E-1,5.5773354E-1,3.9600628E1,0E0,0E0,0E0,0E0,0E0,0E0,3.7394104E1,2.6916145E1,0E0,5.5722046E-1,1.8015442E1,0E0,1.4076754E1,1.2372206E1,9.1707184E1,4.4264282E1,0E0,1.790149E1,9.62807E1,0E0,0E0,5.6319885E1,1.5638358E2,3.6670392E2,7.344708E1,5.6914655E2,0E0,0E0,0E0,0E0,0E0,1.1085039E1,6.5602745E1,1.0453217E1,1.2817149E0,0E0,0E0,0E0,1.1849319E1,4.041626E0,5.9124985E0,0E0,0E0,0E0,1.5109024E1,3.41613E0,0E0,4.5361282E1,0E0,0E0,0E0,1.3028989E2,3.850708E0,0E0,2.0910535E2,9.378096E2,4.154431E1,0E0,1.2478516E1,1.4349863E2,8.138612E2,1.4170663E3,0E0,0E0,0E0,0E0,0E0,0E0,0E0,0E0,0E0,0E0,0E0,0E0,0E0,0E0,0E0,0E0,0E0,0E0,0E0,0E0,0E0,0E0,0E0,0E0,0E0,0E0,0E0,0E0,0E0,0E0,0E0,0E0,0E0,0E0,0E0,0E0,0E0,0E0],"parents":[2147483647,0,0,1,1,2,2,3,3,4,4,5,5,6,6,7,7,8,8,9,9,10,10,11,11,12,12,13,13,14,14,15,15,16,16,17,17,18,18,20,20,21,21,22,22,24,24,27,27,29,29,32,32,33,33,34,34,35,35,36,36,37,37,38,38,40,40,41,41,42,42,43,43,44,44,46,46,47,47,48,48,55,55,56,56,58,58,59,59,61,61,62,62,63,63,64,64,66,66,67,67,70,70,71,71,72,72,73,73,74,74,80,80,81,81,82,82,83,83,87,87,88,88,89,89,93,93,94,94,96,96,100,100,101,101,103,103,104,104,105,105,107,107,108,108,109,109,110,110],"right_children":[2,4,6,8,10,12,14,16,18,20,22,24,26,28,30,32,34,36,38,-1,40,42,44,-1,46,-1,-1,48,-1,50,-1,-1,52,54,56,58,60,62,64,-1,66,68,70,72,74,-1,76,78,80,-1,-1,-1,-1,-1,-1,82,84,-1,86,88,-1,90,92,94,96,-1,98,100,-1,-1,102,104,106,108,110,-1,-1,-1,-1,-1,112,114,116,118,-1,-1,-1,120,122,124,-1,-1,-1,126,128,-1,130,-1,-1,-1,132,134,-1,136,138,140,-1,142,144,146,148,-1,-1,-1,-1,-1,-1,-1,-1,-1,-1,-1,-1,-1,-1,-1,-1,-1,-1,-1,-1,-1,-1,-1,-1,-1,-1,-1,-1,-1,-1,-1,-1,-1,-1,-1,-1,-1,-1],"split_conditions":[4.531E3,8.31E2,4.645E3,3.21E2,9.63E2,4.607E3,4.777E3,5.6E1,4.72E2,8.5E2,1.114E3,4.55E3,4.626E3,4.758E3,4.815E3,1.8E1,9.4E1,3.77E2,6.04E2,4.782101E-2,8.87E2,1.039E3,2.094E3,3.383767E-2,4.569E3,4.2652946E-2,6.543948E-2,4.682E3,1.285669E-2,4.796E3,-3.6904274E-3,-1.6103776E-2,3.7E1,7.5E1,2.64E2,3.4E2,4.53E2,5.66E2,7.36E2,4.1726795E-3,9.06E2,1.02E3,1.057E3,1.926E3,2.434E3,7.560766E-3,4.588E3,4.663E3,4.701E3,4.7576264E-2,5.8695074E-2,-5.091473E-3,-6.9976696E-3,-1.3515317E-3,6.847479E-4,1.88E2,3.02E2,-2.031834E-2,3.58E2,4.15E2,-1.2448718E-2,5.47E2,5.85E2,6.99E2,7.55E2,4.9227323E-2,9.44E2,9.82E2,2.5780266E-2,-2.887241E-2,1.095E3,1.7E3,2.04E3,2.285E3,2.831E3,2.6775686E-2,2.4413412E-2,4.8909117E-3,6.7985444E-3,-1.4582341E-2,4.739E3,1.51E2,2.07E2,2.83E2,8.071881E-3,-2.4503797E-2,-2.230748E-2,3.96E2,4.34E2,5.1E2,-3.1169048E-3,9.64735E-3,1.1774049E-3,6.42E2,7.17E2,-2.2679301E-2,7.93E2,8.316311E-3,1.7143602E-2,-2.9677548E-2,1.001E3,1.076E3,-2.6700366E-2,1.643E3,1.738E3,1.983E3,5.732483E-4,2.208E3,2.399E3,2.625E3,2.944E3,-4.5484295E-3,2.3797802E-3,8.789793E-3,-3.8723892E-3,1.5577533E-2,9.196676E-3,-4.098661E-3,-1.3488377E-3,-1.8806867E-2,-1.048485E-2,-1.9413136E-2,-2.4382573E-2,1.955104E-3,6.1297487E-3,-5.0402237E-3,-1.1087023E-2,7.399193E-3,2.8622125E-3,-4.2980453E-3,-1.5747398E-2,4.481816E-3,-2.2964431E-2,-1.3458524E-2,-8.671315E-3,-7.884744E-4,-1.5709333E-2,3.8592026E-2,-1.7641499E-3,1.9497683E-2,2.84661E-2,-1.3668575E-2,-1.7550867E-2,-4.262344E-3,-2.1420358E-2,-3.7277157E-3,1.7485589E-2,-2.7920673E-2,-7.631996E-4],"split_indices":[1,1,1,1,1,1,1,1,1,1,1,1,1,1,1,1,1,1,1,0,1,1,1,0,1,0,0,1,0,1,0,0,1,1,1,1,1,1,1,0,1,1,1,1,1,0,1,1,1,0,0,0,0,0,0,1,1,0,1,1,0,1,1,1,1,0,1,1,0,0,1,1,1,1,1,0,0,0,0,0,1,1,1,1,0,0,0,1,1,1,0,0,0,1,1,0,1,0,0,0,1,1,0,1,1,1,0,1,1,1,1,0,0,0,0,0,0,0,0,0,0,0,0,0,0,0,0,0,0,0,0,0,0,0,0,0,0,0,0,0,0,0,0,0,0,0,0,0,0],"split_type":[0,0,0,0,0,0,0,0,0,0,0,0,0,0,0,0,0,0,0,0,0,0,0,0,0,0,0,0,0,0,0,0,0,0,0,0,0,0,0,0,0,0,0,0,0,0,0,0,0,0,0,0,0,0,0,0,0,0,0,0,0,0,0,0,0,0,0,0,0,0,0,0,0,0,0,0,0,0,0,0,0,0,0,0,0,0,0,0,0,0,0,0,0,0,0,0,0,0,0,0,0,0,0,0,0,0,0,0,0,0,0,0,0,0,0,0,0,0,0,0,0,0,0,0,0,0,0,0,0,0,0,0,0,0,0,0,0,0,0,0,0,0,0,0,0,0,0,0,0],"sum_hessian":[7.45807E5,6.9892E5,4.6887E4,1.28249E5,5.70671E5,1.7589E4,2.9298E4,4.9609E4,7.864E4,2.036E4,5.50311E5,1.1723E4,5.866E3,2.0361E4,8.937E3,8.782E3,4.0827E4,2.3288E4,5.5352E4,2.934E3,1.7426E4,2.3263E4,5.27048E5,2.924E3,8.799E3,2.928E3,2.938E3,1.7436E4,2.925E3,5.857E3,3.08E3,2.929E3,5.853E3,5.863E3,3.4964E4,8.633E3,1.4655E4,2.0338E4,3.5014E4,5.707E3,1.1719E4,1.1712E4,1.1551E4,1.51168E5,3.7588E5,2.938E3,5.861E3,5.713E3,1.1723E4,2.923E3,2.934E3,2.93E3,2.923E3,2.932E3,2.931E3,2.6192E4,8.772E3,2.927E3,5.706E3,1.1722E4,2.933E3,1.448E4,5.858E3,2.0349E4,1.4665E4,2.934E3,8.785E3,8.776E3,2.936E3,2.768E3,8.783E3,1.25238E5,2.593E4,5.2426E4,3.23454E5,2.927E3,2.934E3,2.779E3,2.934E3,2.938E3,8.785E3,1.4487E4,1.1705E4,5.848E3,2.924E3,2.78E3,2.926E3,5.861E3,5.861E3,1.1553E4,2.927E3,2.925E3,2.933E3,1.4651E4,5.698E3,2.933E3,1.1732E4,5.848E3,2.937E3,2.929E3,5.847E3,5.847E3,2.936E3,9.0369E4,3.4869E4,1.7585E4,8.345E3,2.9464E4,2.2962E4,6.1271E4,2.62183E5,5.865E3,2.92E3,8.78E3,5.707E3,2.924E3,8.781E3,2.928E3,2.92E3,2.934E3,2.927E3,2.929E3,2.932E3,5.857E3,5.696E3,5.852E3,8.799E3,2.766E3,2.932E3,5.862E3,5.87E3,2.924E3,2.923E3,2.916E3,2.931E3,8.1567E4,8.802E3,5.852E3,2.9017E4,8.785E3,8.8E3,1.758E4,1.1884E4,1.7572E4,5.39E3,2.9479E4,3.1792E4,1.7407E4,2.44776E5],"tree_param":{"num_deleted":"0","num_feature":"2","num_nodes":"149","size_leaf_vector":"1"}},{"base_weights":[1.7005284E-5,-1.2722371E-2,1.8980399E-1,-1.7943654E-2,3.6568455E-2,3.3032057E-1,1.0536781E-1,-1.2553529E-2,-2.0669504E-1,1.72499E-1,-1.1154988E-2,2.3235561E-1,5.260315E-1,6.15121E-3,3.3033377E-1,-1.698409E-2,9.982444E-2,-2.0142213E-1,-2.1715523E-1,2.2977723E-1,1.1618469E-1,1.1283396E-2,-4.3359485E-2,3.0753734E-2,1.9818081E-1,3.870156E-2,5.8015507E-2,-1.3731178E-2,1.1420484E-2,5.2559906E-1,-3.7715246E-3,-8.388561E-3,-7.065777E-2,2.1842761E-1,2.7866537E-2,-1.9203596E-2,-1.6469048E-2,-2.2029517E-2,-1.789457E-2,1.667684E-2,2.9778156E-2,4.97777E-2,2.294183E-2,-4.6184976E-2,3.612049E-2,-7.7487454E-2,-2.9528968E-2,7.4925115E-3,2.3596494E-2,5.4762308E-3,-4.932128E-2,4.4405043E-2,5.2240968E-2,-1.9257464E-2,3.368242E-2,-2.3790398E-1,-4.2528793E-2,3.1429574E-2,1.5660542E-1,-2.0707864E-2,2.0228464E-2,2.610345E-3,6.53012E-3,1.4148483E-2,-1.5380898E-2,6.425241E-2,-8.4969297E-4,-5.8552898E-3,-8.384128E-3,6.4118486E-3,-5.459168E-2,-1.2827092E-2,-1.9211778E-2,-1.3868326E-3,-8.9788914E-2,2.2988631E-1,-2.158728E-2,-2.5270438E-1,-1.7780742E-2,-8.141101E-2,-1.4738862E-2,1.2172891E-2,1.6624054E-2,1.0016518E-2,-1.0848665E-2,4.516799E-3,-1.8959931E-3,3.5664786E-4,8.471077E-2,5.632512E-3,-1.2824959E-3,-9.895503E-3,-3.6510125E-2,-4.087147E-3,2.8689844E-3,-1.4465032E-3,1.50069455E-2,-1.3403055E-2,-4.889793E-3,3.1132814E-2,1.53015405E-2,-1.6182132E-2,4.7421916E-3,-2.1670958E-2,-2.6349192E-2,-3.6652307E-3,-1.1261496E-2,9.672364E-3,-2.2112771E-3,-5.5149533E-3,1.3813914E-2,9.426219E-3,4.598862E-3,-1.1680949E-3,2.2166378E-3,-8.536395E-4,-8.232631E-3],"categories":[],"categories_nodes":[],"categories_segments":[],"categories_sizes":[],"default_left":[0,0,0,0,0,0,0,0,0,0,0,0,0,0,0,0,0,0,0,0,0,0,0,0,0,0,0,0,0,0,0,0,0,0,0,0,0,0,0,0,0,0,0,0,0,0,0,0,0,0,0,0,0,0,0,0,0,0,0,0,0,0,0,0,0,0,0,0,0,0,0,0,0,0,0,0,0,0,0,0,0,0,0,0,0,0,0,0,0,0,0,0,0,0,0,0,0,0,0,0,0,0,0,0,0,0,0,0,0,0,0,0,0,0,0,0,0],"id":17,"left_children":[1,3,5,7,9,11,13,15,17,19,21,23,25,27,29,31,33,35,37,39,41,43,45,-1,47,-1,-1,49,-1,51,-1,53,55,57,59,-1,-1,-1,-1,-1,-1,61,-1,63,65,67,69,-1,-1,-1,71,-1,-1,73,75,77,79,-1,81,83,-1,-1,-1,85,-1,87,89,-1,-1,-1,91,-1,93,95,97,99,101,103,-1,105,107,-1,-1,109,-1,-1,-1,-1,111,113,-1,-1,115,-1,-1,-1,-1,-1,-1,-1,-1,-1,-1,-1,-1,-1,-1,-1,-1,-1,-1,-1,-1,-1,-1,-1,-1],"loss_changes":[1.8032852E3,1.7986261E2,5.564335E2,6.428648E2,4.3427917E2,3.3718958E2,6.540365E2,3.0588617E2,7.630005E-1,5.594818E1,3.581201E1,4.06593E1,6.412268E1,4.7779797E1,6.5053705E2,2.726829E2,1.9875876E2,1.7430115E0,2.74057E0,3.90058E1,7.753782E1,4.1660603E1,9.559109E0,0E0,5.9790985E1,0E0,0E0,4.5389397E1,0E0,1.004834E1,0E0,2.32986E2,3.8371564E2,6.681644E1,1.3542824E2,0E0,0E0,0E0,0E0,0E0,0E0,2.6182823E0,0E0,6.436475E1,2.12297E1,1.038578E0,3.604236E1,0E0,0E0,0E0,3.1743044E1,0E0,0E0,5.1035294E2,1.1344156E3,7.528076E0,7.543043E1,0E0,3.2858124E0,3.4637302E1,0E0,0E0,0E0,7.151929E0,0E0,1.4270187E1,7.508527E-1,0E0,0E0,0E0,1.1028938E1,0E0,1.1184225E1,7.624086E2,1.6760956E2,1.5836707E2,9.215986E2,4.817993E0,0E0,4.9568344E1,4.5422882E1,0E0,0E0,8.632279E1,0E0,0E0,0E0,0E0,5.268879E0,1.9918358E0,0E0,0E0,1.24225855E1,0E0,0E0,0E0,0E0,0E0,0E0,0E0,0E0,0E0,0E0,0E0,0E0,0E0,0E0,0E0,0E0,0E0,0E0,0E0,0E0,0E0,0E0,0E0,0E0],"parents":[2147483647,0,0,1,1,2,2,3,3,4,4,5,5,6,6,7,7,8,8,9,9,10,10,11,11,12,12,13,13,14,14,